data_t L1_BIAS [64] = {
    -0.08824373036623001,
    -0.13872136175632477,
    0.08492976427078247,
    -0.04954366758465767,
    0.06397807598114014,
    0.19617417454719543,
    -0.06929874420166016,
    -0.018797559663653374,
    -0.05003204196691513,
    -0.042699553072452545,
    0.1876068115234375,
    -0.03253580257296562,
    0.0030184455681592226,
    0.02270207554101944,
    -0.19018405675888062,
    -0.12763649225234985,
    0.08503765612840652,
    0.07561920583248138,
    -0.15841683745384216,
    -0.04556602984666824,
    -0.13197118043899536,
    -0.16158980131149292,
    -0.1897193044424057,
    0.1926763951778412,
    -0.1357194036245346,
    0.028064394369721413,
    -0.09407516568899155,
    0.06446482241153717,
    -0.1098787933588028,
    0.11761139333248138,
    -0.39534544944763184,
    -0.0167163647711277,
    -0.14304323494434357,
    -0.24964338541030884,
    -0.10099529474973679,
    -0.10840831696987152,
    -0.12135574221611023,
    0.17144526541233063,
    -0.1930205225944519,
    0.12232843786478043,
    -0.00543794734403491,
    -0.2923499643802643,
    -0.08765623718500137,
    0.12306328862905502,
    -0.34709441661834717,
    0.19469104707241058,
    0.30285966396331787,
    -0.12665380537509918,
    -0.14379236102104187,
    -0.0816749557852745,
    0.11637841910123825,
    -0.07999107241630554,
    0.025679077953100204,
    -0.021275242790579796,
    0.03768022730946541,
    -0.0006307304138317704,
    0.15592798590660095,
    -0.15338221192359924,
    -0.08773908019065857,
    0.022296685725450516,
    0.15718238055706024,
    0.13243557512760162,
    0.2543220520019531,
    -0.12003139406442642,
};