data_t L1_WEIGHTS [784][64] = {
    0.0033723488450050354,
    0.04776289314031601,
    -0.02129572629928589,
    -0.019864559173583984,
    -0.05201591178774834,
    0.08094532042741776,
    -0.008494563400745392,
    0.0009398236870765686,
    -0.003956951200962067,
    -0.009348295629024506,
    0.06067388504743576,
    -0.008076861500740051,
    -0.05282802879810333,
    -0.0021123290061950684,
    -0.0077929869294166565,
    0.07434628158807755,
    0.06186475604772568,
    0.06929764896631241,
    -0.0776619017124176,
    -0.015112116932868958,
    0.006181001663208008,
    -0.06020952761173248,
    -0.047012705355882645,
    0.002901986241340637,
    0.027267538011074066,
    0.028696857392787933,
    0.009164273738861084,
    -0.07246867567300797,
    0.04104442149400711,
    -0.03823019936680794,
    -0.005113065242767334,
    -0.015464238822460175,
    0.034942761063575745,
    0.009221650660037994,
    -0.06958036124706268,
    -0.008809320628643036,
    -0.02082088589668274,
    0.04603046923875809,
    -0.056332360953092575,
    0.05386923998594284,
    0.007302582263946533,
    0.06801683455705643,
    -0.07643779367208481,
    -0.0011786222457885742,
    -0.07772160321474075,
    0.07697845250368118,
    0.06268558651208878,
    -0.07938418537378311,
    0.05088164657354355,
    0.05222024768590927,
    -0.07276221364736557,
    -0.05803071707487106,
    0.0023105069994926453,
    0.019965030252933502,
    0.0816083773970604,
    -0.07163872569799423,
    0.022456534206867218,
    -0.05626940727233887,
    -0.02128351479768753,
    -0.005859144032001495,
    -0.033063728362321854,
    -0.036158300936222076,
    -0.007863014936447144,
    -0.07374238967895508,
    0.02864912897348404,
    0.07892710715532303,
    -0.01546160876750946,
    0.03848852217197418,
    0.06225114315748215,
    -0.04121553152799606,
    0.0205981582403183,
    0.04882443696260452,
    -0.08369363099336624,
    -0.026399686932563782,
    0.040111392736434937,
    -0.049083661288022995,
    -0.07179667800664902,
    -0.014523148536682129,
    -0.07735177129507065,
    0.01298534870147705,
    -0.033095832914114,
    0.0748588964343071,
    0.05225745588541031,
    -0.08215685188770294,
    0.05063464492559433,
    -0.06038852035999298,
    0.04120885580778122,
    0.027211740612983704,
    -0.016296349465847015,
    -0.021502673625946045,
    0.07095726579427719,
    0.0807618722319603,
    -0.08066757023334503,
    0.013561300933361053,
    0.0036750957369804382,
    0.07978180795907974,
    -0.031499315053224564,
    0.07092443853616714,
    -0.041637204587459564,
    -0.02285708859562874,
    0.07898171991109848,
    -0.019387394189834595,
    -0.013828553259372711,
    0.05917344242334366,
    -0.06466560065746307,
    0.054073967039585114,
    0.00511033833026886,
    0.03957075625658035,
    -0.056407563388347626,
    -0.019900791347026825,
    -0.04207421839237213,
    0.036507293581962585,
    0.05303507298231125,
    0.029339395463466644,
    0.07484414428472519,
    0.019360743463039398,
    0.08284460753202438,
    0.0057661086320877075,
    -0.07101187109947205,
    0.059435077011585236,
    0.05349961668252945,
    0.02910716086626053,
    0.08164194971323013,
    0.018435955047607422,
    -0.0593729242682457,
    0.02748212218284607,
    0.07301149517297745,
    -0.009387239813804626,
    -0.04572015628218651,
    0.0033465400338172913,
    -0.054858215153217316,
    0.020012661814689636,
    0.06654942780733109,
    -0.07291778177022934,
    0.0223056823015213,
    0.07779169827699661,
    -0.03797800838947296,
    -0.004783324897289276,
    0.04678783565759659,
    0.0018391460180282593,
    0.021672755479812622,
    0.06423769146203995,
    0.07620284706354141,
    -0.05562615394592285,
    0.07359009236097336,
    0.015887752175331116,
    -0.011484846472740173,
    0.0590963140130043,
    -0.01017647236585617,
    0.035054005682468414,
    -0.050741810351610184,
    -0.005618929862976074,
    -0.022571850568056107,
    -0.033946357667446136,
    -0.0815415158867836,
    -0.07429349422454834,
    -0.040592651814222336,
    0.08012910932302475,
    0.05952056497335434,
    0.0359804704785347,
    0.07348649948835373,
    -0.07691856473684311,
    0.08103533834218979,
    0.006037287414073944,
    -0.007093250751495361,
    0.05862978845834732,
    0.027829892933368683,
    -0.03815766051411629,
    0.059078969061374664,
    0.054382793605327606,
    0.06572198122739792,
    0.06367330998182297,
    -0.07533225417137146,
    0.03349083662033081,
    0.04838886111974716,
    -0.03516193851828575,
    -0.0733792781829834,
    0.0061049312353134155,
    0.05570291727781296,
    -0.017538301646709442,
    0.005196996033191681,
    0.04541044682264328,
    0.01592150330543518,
    0.021127603948116302,
    0.019215740263462067,
    0.003306552767753601,
    -0.06143306940793991,
    -0.04742298647761345,
    -0.006933480501174927,
    -0.04628808796405792,
    -0.004486553370952606,
    -0.003496691584587097,
    0.028747275471687317,
    0.0029253512620925903,
    -0.022334102541208267,
    -0.059213727712631226,
    0.07546580582857132,
    0.05581236630678177,
    0.04646352678537369,
    -0.0421367883682251,
    0.0747312530875206,
    0.007783859968185425,
    -0.06525218486785889,
    0.0397740975022316,
    -0.07770220935344696,
    0.0046244338154792786,
    -0.017627783119678497,
    -0.038535311818122864,
    -0.012098826467990875,
    -0.04063360393047333,
    0.03402170538902283,
    0.006343282759189606,
    -0.033301617950201035,
    -0.013658508658409119,
    -0.02538340911269188,
    -0.058669403195381165,
    -0.07198009639978409,
    0.030839689075946808,
    -0.014114990830421448,
    0.03988581895828247,
    0.05536959320306778,
    0.009580709040164948,
    -0.000789836049079895,
    0.015925057232379913,
    0.03226955980062485,
    0.03516584634780884,
    -0.08351586759090424,
    0.03561778366565704,
    -0.07328037172555923,
    -0.07565363496541977,
    -0.016864441335201263,
    0.05522451549768448,
    -0.011066146194934845,
    0.03153001517057419,
    0.05885080248117447,
    0.0773104652762413,
    0.05920203775167465,
    0.05149465054273605,
    0.03469026833772659,
    -0.05828692018985748,
    0.017165742814540863,
    0.06930971890687943,
    -0.03221986070275307,
    -0.012601517140865326,
    0.04477987438440323,
    -0.0029893070459365845,
    -0.03441471606492996,
    0.055084891617298126,
    0.062051139771938324,
    -0.05162247642874718,
    -0.037170324474573135,
    -0.04590487852692604,
    -0.055227264761924744,
    0.028521358966827393,
    0.05011046677827835,
    -0.06910775601863861,
    0.006380222737789154,
    -0.05599846690893173,
    -0.08135554939508438,
    -0.019541054964065552,
    0.08255379647016525,
    0.040047645568847656,
    0.07279817014932632,
    -0.05315404012799263,
    -0.0070175901055336,
    0.0020280182361602783,
    -0.050991352647542953,
    -0.06714858114719391,
    0.06973838061094284,
    -0.04334001615643501,
    0.008917152881622314,
    0.02153141051530838,
    0.030161641538143158,
    0.05220416933298111,
    -0.03199121728539467,
    0.008547767996788025,
    -0.0815933346748352,
    -0.03155967965722084,
    -0.034645047038793564,
    -0.004222795367240906,
    -0.020709924399852753,
    -0.05742683261632919,
    -0.06882844865322113,
    -0.000418342649936676,
    -0.012482792139053345,
    0.04756956547498703,
    -0.05259144306182861,
    -0.06946483254432678,
    -0.04441731795668602,
    -0.06790292263031006,
    -0.019567929208278656,
    0.057452984154224396,
    0.06156980246305466,
    0.04461868852376938,
    -0.07925771921873093,
    0.059999994933605194,
    0.037538670003414154,
    0.07100412994623184,
    -0.032533276826143265,
    -0.022732868790626526,
    -0.036048658192157745,
    0.026409149169921875,
    -0.05322033911943436,
    0.042368777096271515,
    0.0684085413813591,
    -0.02539626508951187,
    -0.011621043086051941,
    -0.054025620222091675,
    0.08167485147714615,
    -0.01764519512653351,
    0.03401724994182587,
    0.05547601729631424,
    0.023146480321884155,
    -0.026500020176172256,
    0.05454576760530472,
    -0.028480831533670425,
    -0.07758025825023651,
    -0.04861418157815933,
    0.035787567496299744,
    0.0603194460272789,
    0.05508849769830704,
    0.05601353198289871,
    0.013100698590278625,
    -0.0598076730966568,
    0.007281765341758728,
    -0.07434682548046112,
    0.03787358105182648,
    0.05022753030061722,
    0.02905970811843872,
    0.0697360560297966,
    -0.0064796581864356995,
    -0.06906630098819733,
    -0.048443753272295,
    0.007337503135204315,
    -0.07324076443910599,
    -0.03302692621946335,
    -0.06185123324394226,
    0.015102729201316833,
    0.04650668054819107,
    -0.033973172307014465,
    0.04410431534051895,
    -0.008622787892818451,
    0.038212329149246216,
    -0.030066460371017456,
    0.07167498022317886,
    -0.02968497946858406,
    0.051644958555698395,
    0.030545830726623535,
    0.01837494969367981,
    -0.03602609783411026,
    0.04925005882978439,
    -0.007951036095619202,
    -0.0009187906980514526,
    -0.022265613079071045,
    -0.03367122635245323,
    0.06632032245397568,
    0.014943994581699371,
    0.06771143525838852,
    0.03240969777107239,
    -0.02742578834295273,
    0.057124145328998566,
    -0.03454270586371422,
    0.04593601077795029,
    -0.08199097961187363,
    -0.062065158039331436,
    -0.028040125966072083,
    -0.04769841954112053,
    -0.006266191601753235,
    0.054399825632572174,
    0.07740087062120438,
    0.053306229412555695,
    -0.05725923180580139,
    -0.010282225906848907,
    0.042429082095623016,
    0.00388316810131073,
    -0.010216020047664642,
    -0.03449868783354759,
    0.05854926258325577,
    0.06952964514493942,
    0.05958988517522812,
    0.033479563891887665,
    0.006544150412082672,
    -0.014833778142929077,
    -0.07951375842094421,
    0.024649985134601593,
    0.048611246049404144,
    0.06893592327833176,
    0.06764440983533859,
    0.015222877264022827,
    -0.06475887447595596,
    0.025953568518161774,
    0.05680013447999954,
    0.021802708506584167,
    -0.0389171727001667,
    0.0649745836853981,
    -0.03221268206834793,
    -0.002304457128047943,
    0.010633483529090881,
    0.012279018759727478,
    -0.0165201798081398,
    -0.01579209417104721,
    0.04634746164083481,
    0.0010548233985900879,
    -0.01612894982099533,
    -0.013780198991298676,
    -0.044472526758909225,
    0.07167356461286545,
    0.021401934325695038,
    0.01570495218038559,
    -0.03177410364151001,
    -0.01944912225008011,
    0.02088560163974762,
    0.08254805952310562,
    0.06257928162813187,
    0.003399387001991272,
    0.040780603885650635,
    0.028926730155944824,
    -0.005223564803600311,
    0.02308846265077591,
    -0.03173622116446495,
    -0.06435096263885498,
    0.03691909462213516,
    -0.010364167392253876,
    -0.06518295407295227,
    -0.030269857496023178,
    -0.03159672021865845,
    0.03330320119857788,
    0.06844965368509293,
    -0.04206659644842148,
    0.010422348976135254,
    -0.04904608055949211,
    0.01501476764678955,
    0.07816090434789658,
    -0.08155415207147598,
    0.06630880385637283,
    0.05373770743608475,
    -0.08067705482244492,
    0.04828164726495743,
    0.009505882859230042,
    -0.0287313349545002,
    -0.036982350051403046,
    -0.05903301760554314,
    0.0075998008251190186,
    0.03472265601158142,
    0.055170245468616486,
    -0.020339176058769226,
    0.056556858122348785,
    0.049332790076732635,
    0.07990524917840958,
    0.07952869683504105,
    0.07753629237413406,
    -0.02954748272895813,
    0.06302996724843979,
    -0.06094194948673248,
    -0.07698414474725723,
    0.03295537084341049,
    -0.02325287088751793,
    -0.016841381788253784,
    -0.05874679237604141,
    0.05926855653524399,
    -0.009829424321651459,
    0.02016543596982956,
    -0.04718140512704849,
    -0.06022386997938156,
    -0.06680083274841309,
    -0.047005947679281235,
    -0.03264353796839714,
    0.010045155882835388,
    0.021126940846443176,
    -0.042398761957883835,
    0.07009962946176529,
    -0.007237531244754791,
    -0.05866210162639618,
    0.05101058632135391,
    -0.0512172095477581,
    -0.03125229850411415,
    0.07708386331796646,
    0.048003531992435455,
    0.03162556141614914,
    0.026638835668563843,
    0.02421862632036209,
    0.027884379029273987,
    0.03334513306617737,
    0.052082471549510956,
    -0.05602293461561203,
    -0.05115259438753128,
    -0.028530888259410858,
    0.0467996820807457,
    0.03846341371536255,
    -0.0668216124176979,
    -0.07598642259836197,
    0.06586233526468277,
    0.04589184373617172,
    0.04207783192396164,
    -0.001423269510269165,
    -0.07571014761924744,
    0.006672821938991547,
    -0.030085772275924683,
    -0.07220451533794403,
    -0.07453958690166473,
    -0.03230196610093117,
    0.022447854280471802,
    0.03201396018266678,
    -0.04311606287956238,
    -0.07838273048400879,
    0.0677965059876442,
    -0.025935158133506775,
    0.03193119168281555,
    0.064879409968853,
    0.055879898369312286,
    0.032347969710826874,
    -0.013026341795921326,
    -0.0003849118947982788,
    0.04499439150094986,
    -0.08048456907272339,
    0.052479974925518036,
    -0.08355603367090225,
    -0.034088123589754105,
    0.02070710062980652,
    -0.026145432144403458,
    -0.004228346049785614,
    -0.03648262470960617,
    -0.023625608533620834,
    -0.056721825152635574,
    -0.029607146978378296,
    0.048739828169345856,
    -0.03465884551405907,
    0.04911697655916214,
    0.05278664082288742,
    0.041810400784015656,
    0.06293515115976334,
    -0.028335552662611008,
    -0.02413291484117508,
    0.028871439397335052,
    -0.01965213567018509,
    0.005547955632209778,
    0.05904223769903183,
    -0.05232786387205124,
    -0.07956134527921677,
    -0.08196930587291718,
    -0.04936856031417847,
    -0.008805491030216217,
    -0.02263101190328598,
    0.010112620890140533,
    0.08251068741083145,
    -0.054259058088064194,
    -0.08295922726392746,
    -0.014585256576538086,
    0.01586855947971344,
    0.02031847834587097,
    0.08119962364435196,
    -0.03704772889614105,
    0.026833951473236084,
    0.0029341503977775574,
    0.07675718516111374,
    0.018184266984462738,
    -0.01910923421382904,
    0.028813935816287994,
    -0.07833568006753922,
    -0.006192252039909363,
    -0.0797702968120575,
    0.0024593546986579895,
    0.01586753875017166,
    0.025996103882789612,
    0.03148810565471649,
    -0.006699077785015106,
    0.03304154425859451,
    -0.041110966354608536,
    0.04649009555578232,
    0.009996563196182251,
    -0.06648758053779602,
    0.009338587522506714,
    -0.03430002182722092,
    0.08059001713991165,
    -0.0025288835167884827,
    0.04026924818754196,
    -0.03111506626009941,
    -0.012409858405590057,
    0.030473530292510986,
    0.05052570253610611,
    0.03597529977560043,
    -0.04049729183316231,
    0.044377394020557404,
    -0.041891999542713165,
    0.0811770036816597,
    -0.0639132708311081,
    -0.03738493099808693,
    -0.015100643038749695,
    -0.03421621397137642,
    0.016964852809906006,
    -0.04449216276407242,
    0.01580384373664856,
    0.01723465323448181,
    -0.036836471408605576,
    0.03097701072692871,
    -0.03305576369166374,
    -0.021619629114866257,
    -0.006818704307079315,
    -0.031057044863700867,
    0.0387030690908432,
    -0.003239050507545471,
    -0.04069807752966881,
    0.027426548302173615,
    0.01940273493528366,
    -0.07650020718574524,
    0.05918116122484207,
    -0.07257065176963806,
    0.01388927549123764,
    0.07861541956663132,
    0.022850975394248962,
    0.023525334894657135,
    -0.020713411271572113,
    0.049766384065151215,
    0.07904965430498123,
    -0.06276005506515503,
    0.06090430170297623,
    -0.009438939392566681,
    -0.05610714480280876,
    0.012458346784114838,
    -0.04367488995194435,
    0.0678330585360527,
    0.02532314509153366,
    0.05061354488134384,
    -0.036162491887807846,
    -0.03389999270439148,
    0.008794382214546204,
    0.001879677176475525,
    0.02906237542629242,
    -0.07653263211250305,
    0.07295923680067062,
    -0.0436202809214592,
    -0.04808555543422699,
    -0.028099987655878067,
    -0.004375874996185303,
    -0.020105190575122833,
    0.02891465276479721,
    -0.020297080278396606,
    0.05490470677614212,
    -0.019178785383701324,
    0.03473300486803055,
    0.016530610620975494,
    -0.007814101874828339,
    -0.0660720020532608,
    0.0019439905881881714,
    -0.023850221186876297,
    -0.01193351298570633,
    -0.028926346451044083,
    -0.018704064190387726,
    -0.07699022442102432,
    -0.020046591758728027,
    -0.06974312663078308,
    -0.03682056814432144,
    0.08387473970651627,
    0.05876749008893967,
    0.007491379976272583,
    -0.04776676371693611,
    0.03708808124065399,
    0.05100109428167343,
    -0.0556376650929451,
    -0.010893471539020538,
    -0.049233369529247284,
    0.0792858675122261,
    0.017770640552043915,
    -0.07962487637996674,
    0.036261819303035736,
    -0.07387128472328186,
    0.08099652081727982,
    -0.01930861920118332,
    -0.0022338181734085083,
    -0.010863348841667175,
    -0.007340610027313232,
    0.0401880219578743,
    0.010639019310474396,
    0.01616673916578293,
    -0.013976871967315674,
    -0.027473680675029755,
    -0.06073690950870514,
    0.03400541841983795,
    0.05603667348623276,
    -0.08329309523105621,
    0.04383183270692825,
    -0.030868150293827057,
    0.0542340949177742,
    -0.047946374863386154,
    0.027062639594078064,
    0.0583217516541481,
    0.06535840779542923,
    0.06315983086824417,
    -0.028910361230373383,
    0.07611875981092453,
    -0.03668966889381409,
    -0.009682245552539825,
    -0.04741474241018295,
    0.036189883947372437,
    0.043476544320583344,
    0.0053614601492881775,
    -0.0005343779921531677,
    0.07034007459878922,
    0.04672028869390488,
    -0.03846999257802963,
    -0.07625796645879745,
    -0.018832936882972717,
    -0.021300822496414185,
    0.03971792012453079,
    -0.0061256736516952515,
    -0.04749089106917381,
    0.07508381456136703,
    -0.004574835300445557,
    0.010873198509216309,
    -0.03312453255057335,
    0.05875854939222336,
    0.025881551206111908,
    -0.027230974286794662,
    -0.07187832146883011,
    0.07312973588705063,
    0.05452340096235275,
    -0.07687491178512573,
    -0.039245009422302246,
    0.07617440074682236,
    -0.012182272970676422,
    -0.04640410467982292,
    0.014712788164615631,
    0.07697957009077072,
    -0.02122272551059723,
    -0.06406062841415405,
    -0.07187218219041824,
    0.009555280208587646,
    0.04809347540140152,
    -0.002422615885734558,
    -0.03001219406723976,
    0.04205048829317093,
    -0.014058254659175873,
    -0.044922515749931335,
    0.0017000213265419006,
    0.0002300068736076355,
    -0.04916989803314209,
    0.02118109166622162,
    -0.02587828040122986,
    -0.05731227621436119,
    -0.04561478644609451,
    -0.018248699605464935,
    0.03320637345314026,
    0.017145410180091858,
    -0.0576678067445755,
    0.0518975630402565,
    -0.08218535035848618,
    0.01893094927072525,
    -0.009363815188407898,
    0.003904886543750763,
    0.06291867047548294,
    0.05473674088716507,
    0.028814882040023804,
    -0.06710516661405563,
    -0.07977388799190521,
    -0.025213245302438736,
    -0.012675203382968903,
    0.038734257221221924,
    0.04910943657159805,
    0.01054171472787857,
    -0.01171267032623291,
    -0.003751128911972046,
    -0.03807232528924942,
    -0.053764909505844116,
    0.02494405210018158,
    -0.07328249514102936,
    0.07240752130746841,
    -0.07880973070859909,
    -0.07925264537334442,
    -0.0225910022854805,
    -0.01692301593720913,
    -0.03447163105010986,
    0.05764186382293701,
    0.001263730227947235,
    -0.014949922449886799,
    0.041802648454904556,
    -0.07419916242361069,
    -0.09096462279558182,
    0.08306706696748734,
    0.04809797182679176,
    -0.00337020680308342,
    -0.017434855923056602,
    0.027409300208091736,
    0.007769758813083172,
    0.018832508474588394,
    -0.07178939878940582,
    0.0495355948805809,
    0.09662596136331558,
    0.08277396857738495,
    0.034846898168325424,
    0.024459322914481163,
    -0.020927544683218002,
    -0.025225261226296425,
    0.08634164929389954,
    -0.0793500617146492,
    -0.04618413373827934,
    0.0099787637591362,
    0.07062286883592606,
    -0.06280618906021118,
    0.03471842780709267,
    0.035862572491168976,
    -0.03327389433979988,
    0.016750670969486237,
    0.017705043777823448,
    0.029296875,
    0.03533872961997986,
    -0.07407591491937637,
    -0.0667797401547432,
    -0.0465705581009388,
    0.04612668603658676,
    -0.05373730883002281,
    -0.07423710823059082,
    0.048270776867866516,
    -0.05633972957730293,
    -0.021068718284368515,
    -0.05915946513414383,
    0.05202232301235199,
    -0.00023410015273839235,
    0.0025118093471974134,
    -0.07351185381412506,
    0.09025038033723831,
    0.006657681427896023,
    0.10686729848384857,
    0.051136258989572525,
    0.06179090589284897,
    0.03026614524424076,
    0.0705336406826973,
    0.0710894763469696,
    -0.036624208092689514,
    0.0229056254029274,
    0.06536511331796646,
    -0.04493849724531174,
    0.08515354990959167,
    -0.019361861050128937,
    0.09296171367168427,
    -0.05210878700017929,
    0.011104053817689419,
    0.07241424173116684,
    -0.06710708141326904,
    0.07942985743284225,
    -0.0679938942193985,
    0.054480213671922684,
    0.07440588623285294,
    0.008192763663828373,
    0.05049397796392441,
    0.10902678221464157,
    -0.038094669580459595,
    -0.0352812185883522,
    0.04239074885845184,
    -0.017977653071284294,
    -0.028536982834339142,
    0.11029813438653946,
    0.014946641400456429,
    -0.02816588245332241,
    0.1068565770983696,
    -0.03717144951224327,
    -0.08543485403060913,
    0.03177589178085327,
    -0.07590124011039734,
    -0.009733162820339203,
    0.029340706765651703,
    -0.027745340019464493,
    0.07936180382966995,
    -0.03653472289443016,
    -0.03637240454554558,
    -0.025559503585100174,
    0.06221722438931465,
    0.06845670938491821,
    -0.05389911308884621,
    -0.007506422232836485,
    0.013501083478331566,
    -0.05114373564720154,
    0.021219640970230103,
    -0.08088177442550659,
    0.04880870506167412,
    -0.02497696690261364,
    0.10550060868263245,
    -0.0037635709159076214,
    0.13543686270713806,
    -0.10039911419153214,
    0.0015907231718301773,
    0.03717084228992462,
    0.0016266277525573969,
    0.016233056783676147,
    0.0014537659008055925,
    0.0006264994153752923,
    0.1133410632610321,
    0.0408647283911705,
    -0.07093755155801773,
    -0.055935315787792206,
    0.1261029988527298,
    -0.007240031845867634,
    0.035460151731967926,
    0.08320625871419907,
    -0.04541359841823578,
    0.012413720600306988,
    0.05421287938952446,
    0.041501618921756744,
    0.12187731266021729,
    0.08025771379470825,
    -0.09362730383872986,
    0.026632003486156464,
    0.04410450533032417,
    -0.020470909774303436,
    -0.06932336091995239,
    -0.03256998583674431,
    0.020552977919578552,
    0.008078881539404392,
    0.02851363644003868,
    0.02641770802438259,
    -0.08130504935979843,
    0.08027344197034836,
    -0.006163477897644043,
    -0.0467066764831543,
    0.03948469087481499,
    -0.042251355946063995,
    0.0697273388504982,
    0.030893761664628983,
    0.027781827375292778,
    0.002795793116092682,
    0.07990901917219162,
    0.06537452340126038,
    0.05068782716989517,
    -0.054570723325014114,
    -0.022567978128790855,
    0.03986416012048721,
    0.05294499546289444,
    -0.02524794079363346,
    -0.06353288888931274,
    -0.09043964743614197,
    0.007367296144366264,
    -0.017399271950125694,
    -0.01230937521904707,
    0.06543907523155212,
    0.03844944387674332,
    -0.010335167869925499,
    -0.09805230051279068,
    -0.07557742297649384,
    -0.08026234805583954,
    -0.020368093624711037,
    0.003773830831050873,
    -0.018671903759241104,
    0.08006618916988373,
    -0.0010576590429991484,
    -0.09799037873744965,
    0.011763414368033409,
    -0.002601092681288719,
    -0.07329230010509491,
    0.07212848961353302,
    -0.06394456326961517,
    -0.05144617706537247,
    -0.07821978628635406,
    0.08205784112215042,
    0.05885990709066391,
    0.08053667843341827,
    -0.025419751182198524,
    0.08680502325296402,
    -0.0703774020075798,
    0.02257934957742691,
    -0.04262331873178482,
    0.10357199609279633,
    -0.04666886851191521,
    -0.021684549748897552,
    -0.049298662692308426,
    0.027280159294605255,
    0.03897280991077423,
    0.055297546088695526,
    -0.008057847619056702,
    -0.05068634822964668,
    -0.03698965534567833,
    0.07077863067388535,
    0.05185260623693466,
    -0.08427494019269943,
    0.009541542269289494,
    -0.01928134262561798,
    -0.07294362038373947,
    0.00782378762960434,
    -0.029928535223007202,
    0.058723606169223785,
    0.017061227932572365,
    0.04502739757299423,
    0.018042318522930145,
    0.0023549916222691536,
    -0.05568258464336395,
    -0.06715068966150284,
    -0.013815334998071194,
    0.047114066779613495,
    -0.03628259152173996,
    0.06688634306192398,
    -0.03512202948331833,
    0.03886742144823074,
    0.015991419553756714,
    -0.03738097846508026,
    -0.021167347207665443,
    -0.02805227041244507,
    0.01241830550134182,
    0.046107880771160126,
    -0.0012919282307848334,
    -0.047919560223817825,
    0.06585600972175598,
    0.03914659470319748,
    0.004767619073390961,
    -0.03848586976528168,
    -0.0038945218548178673,
    -0.01644076406955719,
    0.028411313891410828,
    0.0916094109416008,
    0.01684114709496498,
    0.0053695011883974075,
    -0.007750659715384245,
    0.06403577327728271,
    -0.006493896245956421,
    -0.004365554545074701,
    0.027371548116207123,
    0.040969256311655045,
    0.010910404846072197,
    -0.03488592430949211,
    -0.02461978606879711,
    0.043857745826244354,
    -0.07442598789930344,
    0.07617051899433136,
    -0.0005386322736740112,
    0.05453295260667801,
    -0.05943663790822029,
    0.09015145897865295,
    -0.04062138870358467,
    0.005959115922451019,
    0.08328831940889359,
    -0.07061401009559631,
    0.03124670684337616,
    0.06622866541147232,
    -0.0777311697602272,
    -0.03820362687110901,
    0.0443340465426445,
    0.048236362636089325,
    0.03530300408601761,
    -0.014975205063819885,
    -0.08242641389369965,
    0.06916386634111404,
    -0.030221745371818542,
    0.052936308085918427,
    0.038338713347911835,
    0.07472578436136246,
    0.015236899256706238,
    0.08374164253473282,
    -0.030731458216905594,
    -0.020086906850337982,
    -0.041134752333164215,
    0.08340822905302048,
    0.0021820813417434692,
    -0.002474457025527954,
    -0.08229667693376541,
    0.01211731880903244,
    0.0017366260290145874,
    0.06411241739988327,
    0.040846265852451324,
    -0.08315841108560562,
    0.07946420460939407,
    0.05472751706838608,
    -0.07063145935535431,
    -0.04456213116645813,
    -0.01697988063097,
    0.08104052394628525,
    0.030149728059768677,
    0.018307805061340332,
    0.07911115139722824,
    0.07202715426683426,
    0.03403167426586151,
    0.06757055968046188,
    -0.03579258173704147,
    -0.04351256415247917,
    -0.010758362710475922,
    0.033178120851516724,
    -0.05739390105009079,
    0.015637226402759552,
    -0.06150398403406143,
    -0.05145646259188652,
    -0.017007917165756226,
    0.07819300144910812,
    -0.02142702043056488,
    0.03737562149763107,
    0.022889740765094757,
    -0.012293033301830292,
    0.07206255942583084,
    -0.07050476968288422,
    -0.08390990644693375,
    -0.023457229137420654,
    0.03787188231945038,
    -0.07186546921730042,
    -0.04512418806552887,
    0.00818072259426117,
    0.012567482888698578,
    -0.0641402080655098,
    -0.04192587360739708,
    -0.017361141741275787,
    0.032072439789772034,
    -0.051428668200969696,
    -0.05292445421218872,
    -0.0013134106993675232,
    -0.045441173017024994,
    0.08210425823926926,
    -0.002711847424507141,
    0.07931775599718094,
    -0.039277076721191406,
    -0.016649290919303894,
    0.011104367673397064,
    -0.031050287187099457,
    0.04398994892835617,
    0.08216115087270737,
    0.07861912995576859,
    0.07512516528367996,
    0.00021863728761672974,
    -0.012755781412124634,
    0.005593478679656982,
    0.08300232142210007,
    0.007992967963218689,
    -0.05123291164636612,
    0.05525248497724533,
    0.019189871847629547,
    -0.04291025921702385,
    -0.05598852038383484,
    0.011469848453998566,
    0.04171597212553024,
    0.04866497963666916,
    0.02613414078950882,
    0.022802822291851044,
    -0.04324880614876747,
    -0.016062408685684204,
    -0.005414150655269623,
    -0.059124406427145004,
    0.009339287877082825,
    -0.05869188532233238,
    -0.008627846837043762,
    0.06858193129301071,
    -0.06803504377603531,
    -0.023682203143835068,
    0.05278640240430832,
    0.04215521365404129,
    0.07938855141401291,
    -0.004037871956825256,
    0.05093834549188614,
    0.018140845000743866,
    -0.06312339007854462,
    -0.029333878308534622,
    0.07372123748064041,
    -0.0156870037317276,
    -0.02694633975625038,
    -0.028714168816804886,
    -0.023356836289167404,
    -0.04407026991248131,
    0.030144833028316498,
    -0.06083538010716438,
    0.004540599882602692,
    0.046266309916973114,
    0.06888376921415329,
    0.07383859902620316,
    0.05174120515584946,
    0.05231153219938278,
    -0.032232414931058884,
    0.062233857810497284,
    -0.02612202614545822,
    0.07745558768510818,
    -0.038895875215530396,
    0.07034613937139511,
    0.002637624740600586,
    0.036927178502082825,
    0.0777478739619255,
    -0.015888914465904236,
    0.014363594353199005,
    -0.05369844660162926,
    0.016535162925720215,
    0.08073253184556961,
    -0.031684860587120056,
    -0.031749699264764786,
    -0.028444431722164154,
    -0.06512764096260071,
    0.01456955075263977,
    -0.07977911829948425,
    -0.011885225772857666,
    -0.03432190418243408,
    -0.030383244156837463,
    -0.06383856385946274,
    0.07003512233495712,
    0.04085694998502731,
    0.08225046843290329,
    -0.053333431482315063,
    -0.02867257222533226,
    -0.04061027988791466,
    -0.06606261432170868,
    0.050370775163173676,
    0.017139993607997894,
    0.08410676568746567,
    -0.01051870733499527,
    0.08260980993509293,
    -0.08139360696077347,
    -0.05001227930188179,
    0.06270412355661392,
    0.046830229461193085,
    -0.07023870199918747,
    0.06369598954916,
    -0.01689145714044571,
    -0.08279327303171158,
    0.08321750909090042,
    -0.036853596568107605,
    -0.034751277416944504,
    0.0682811513543129,
    -0.022013045847415924,
    0.07111366838216782,
    -0.05855521187186241,
    0.031589262187480927,
    -0.03573520481586456,
    -0.038873255252838135,
    -0.0686735287308693,
    -0.06527875363826752,
    0.04466382414102554,
    0.05802951008081436,
    0.06447494775056839,
    0.07155243307352066,
    -0.05260191112756729,
    0.03559522330760956,
    -0.03332758694887161,
    -0.002605713903903961,
    0.0840902104973793,
    -0.013959385454654694,
    0.050893329083919525,
    -0.0789613276720047,
    -0.04346116632223129,
    0.03548004478216171,
    -0.07683002948760986,
    -0.056554630398750305,
    0.021902941167354584,
    0.05779344588518143,
    -0.023556139320135117,
    0.02308737486600876,
    0.017131909728050232,
    -0.06322861462831497,
    -0.01437658816576004,
    0.05082840472459793,
    -0.06685465574264526,
    0.05464800447225571,
    -0.0565558522939682,
    -0.03880570828914642,
    -0.03357334062457085,
    0.006638631224632263,
    0.0426480695605278,
    -0.006834447383880615,
    -0.03813836723566055,
    -0.06349995732307434,
    -0.05758516490459442,
    -0.06581544131040573,
    -0.08185090124607086,
    -0.04595419391989708,
    -0.04444866254925728,
    0.048333652317523956,
    -0.011834822595119476,
    -0.06554019451141357,
    0.008224144577980042,
    0.05431940406560898,
    -0.053809188306331635,
    -0.02353644371032715,
    -0.07385409623384476,
    0.015092238783836365,
    0.044592179358005524,
    -0.05723296105861664,
    0.030944615602493286,
    0.0628960058093071,
    0.049959875643253326,
    0.08005023747682571,
    -0.06290999054908752,
    0.04165423661470413,
    0.056252621114254,
    0.04746682196855545,
    0.0067912861704826355,
    0.012988336384296417,
    -0.07838404923677444,
    -0.0650515928864479,
    -0.03181517496705055,
    -0.06751983612775803,
    -0.010359913110733032,
    0.04310096055269241,
    0.05436310917139053,
    0.042133234441280365,
    0.04667753726243973,
    -0.05517006665468216,
    -0.04559583589434624,
    -0.03257697820663452,
    -0.06938862055540085,
    -0.06648258119821548,
    0.0765523687005043,
    -0.025755826383829117,
    -0.03284408524632454,
    0.061233244836330414,
    -0.0490846261382103,
    -0.019399024546146393,
    -0.05492766201496124,
    -0.0832735225558281,
    0.03098244220018387,
    0.0029778555035591125,
    0.03318363428115845,
    0.041780151426792145,
    0.03543110936880112,
    -0.03662268817424774,
    -0.07296562939882278,
    0.033240266144275665,
    0.030774712562561035,
    0.04046947509050369,
    -0.04169558361172676,
    -0.06549462676048279,
    -0.017167411744594574,
    0.01877724379301071,
    0.05418894439935684,
    -0.01794780045747757,
    -0.003626205027103424,
    0.07776353508234024,
    -0.03578149154782295,
    -0.04977990314364433,
    0.03318995237350464,
    -0.016933992505073547,
    0.0807957574725151,
    0.024409569799900055,
    -0.0479712039232254,
    0.06933828443288803,
    0.06323527544736862,
    0.026640906929969788,
    0.0775182917714119,
    -0.08407697826623917,
    0.03845677524805069,
    -0.030457567423582077,
    -0.0659925639629364,
    0.0664275512099266,
    -0.0007025599479675293,
    -0.03999682515859604,
    -0.05070898309350014,
    0.02994033694267273,
    -0.07041016966104507,
    -0.03526776656508446,
    -0.07286166399717331,
    -0.03969572111964226,
    -0.0013519302010536194,
    0.07321622222661972,
    -0.019064366817474365,
    -0.07831741124391556,
    -0.03861849755048752,
    0.0755506381392479,
    -0.011399716138839722,
    -0.04797641932964325,
    0.03785557299852371,
    -0.05136830359697342,
    -0.02050430327653885,
    0.04334791749715805,
    -0.05982624366879463,
    -0.07287029176950455,
    0.04107249528169632,
    -0.05089543014764786,
    -0.051462721079587936,
    -0.07694490253925323,
    -0.0029837489128112793,
    0.013232164084911346,
    -0.03982555493712425,
    -0.02121376246213913,
    -0.08340322226285934,
    0.0834561213850975,
    0.05181839317083359,
    -0.015560321509838104,
    -0.06207961589097977,
    0.0008467733860015869,
    -0.05524025857448578,
    0.07459793239831924,
    -0.042240552604198456,
    0.027064137160778046,
    0.05743402987718582,
    -0.015142902731895447,
    0.0753612145781517,
    -0.06808684766292572,
    -0.06608112901449203,
    0.06436856836080551,
    -0.013062074780464172,
    0.0779711976647377,
    -0.013022571802139282,
    0.023778624832630157,
    -0.011310368776321411,
    0.05919285863637924,
    -0.0538458488881588,
    0.04715236276388168,
    -0.011479511857032776,
    0.06947778910398483,
    0.030788250267505646,
    -0.039986394345760345,
    0.0030833035707473755,
    0.0625954195857048,
    -0.0826500654220581,
    0.08124468475580215,
    0.06303662806749344,
    -0.0766967236995697,
    0.018191084265708923,
    0.082166887819767,
    -0.02455257996916771,
    -0.05690458416938782,
    0.026350833475589752,
    -0.027910593897104263,
    0.06372485309839249,
    -0.03915925696492195,
    -0.054520994424819946,
    -0.011366888880729675,
    0.057578958570957184,
    0.049169622361660004,
    0.004306860268115997,
    0.027292020618915558,
    0.0072129592299461365,
    -0.017872236669063568,
    -0.04675474017858505,
    0.0007506310939788818,
    0.009562239050865173,
    0.07907100766897202,
    0.036594733595848083,
    -0.012908995151519775,
    0.02414374053478241,
    -0.0836620032787323,
    -0.06858913600444794,
    -0.07544851303100586,
    0.08363527804613113,
    0.07053082436323166,
    0.07285479456186295,
    0.024761728942394257,
    0.0713738277554512,
    -0.023609723895788193,
    0.00491759181022644,
    0.034339532256126404,
    -0.02579110488295555,
    -0.05682021379470825,
    0.07938743382692337,
    -0.031539324671030045,
    0.06577079743146896,
    0.07224153727293015,
    0.037840716540813446,
    0.08379703015089035,
    -0.030726522207260132,
    -0.06702747195959091,
    -0.07694607973098755,
    -0.04665689542889595,
    0.03414919227361679,
    -0.04155929014086723,
    0.07834728807210922,
    -0.04158778861165047,
    0.056083641946315765,
    -0.029694683849811554,
    0.03300199657678604,
    -0.06165648251771927,
    -0.046860311180353165,
    0.08259668201208115,
    0.014266565442085266,
    0.08131507784128189,
    0.01773373782634735,
    0.07511094957590103,
    -0.0007030367851257324,
    -0.023678835481405258,
    0.0001462996006011963,
    -0.026690799742937088,
    -0.05335564911365509,
    0.0514238104224205,
    -0.06509938836097717,
    0.060620956122875214,
    0.05647321790456772,
    0.032235726714134216,
    -0.002631448209285736,
    0.054040439426898956,
    -0.07791510969400406,
    0.06539157778024673,
    -0.05663982033729553,
    0.08266524225473404,
    -0.0519680418074131,
    0.037787266075611115,
    0.06987205892801285,
    -0.0497371070086956,
    0.05927041918039322,
    0.045870400965213776,
    0.0048329830169677734,
    0.06432343274354935,
    0.06164216250181198,
    -0.017305023968219757,
    -0.03569212555885315,
    0.0025276020169258118,
    0.03794090449810028,
    -0.05499717593193054,
    -0.07917587459087372,
    0.028950229287147522,
    0.012589223682880402,
    -0.0634676069021225,
    -0.048656534403562546,
    0.031276144087314606,
    0.031462013721466064,
    -0.04551330953836441,
    0.037056535482406616,
    -0.01701425015926361,
    -0.06257542967796326,
    0.034955695271492004,
    -0.05801042169332504,
    -0.014161519706249237,
    0.048515088856220245,
    0.031200841069221497,
    0.05784627050161362,
    0.07944593578577042,
    0.0795820876955986,
    0.058360256254673004,
    0.04615221172571182,
    -0.04903919994831085,
    0.013387247920036316,
    0.005164727568626404,
    -0.07255087792873383,
    -0.010294981300830841,
    -0.014440283179283142,
    -0.027991551905870438,
    -0.024391479790210724,
    -0.030830368399620056,
    0.04672662168741226,
    0.0495881661772728,
    -0.03412554785609245,
    0.06836823374032974,
    0.008318416774272919,
    -0.04897087439894676,
    -0.05685482919216156,
    -0.008884146809577942,
    -0.05388934910297394,
    -0.008383534848690033,
    -0.056790269911289215,
    -0.02258962020277977,
    -0.021251201629638672,
    0.013295955955982208,
    0.06341972202062607,
    -0.0696573555469513,
    0.0670948401093483,
    -0.06538402289152145,
    0.06598306447267532,
    0.029812946915626526,
    -0.08016429096460342,
    0.03592067211866379,
    -0.0161907821893692,
    -0.06356076151132584,
    -0.021259844303131104,
    -0.07962112873792648,
    0.06956189125776291,
    -0.04888008534908295,
    -0.024788223206996918,
    0.031583040952682495,
    -0.08343379944562912,
    -0.08048500865697861,
    0.011859633028507233,
    0.07770010083913803,
    -0.007821403443813324,
    -0.0760417953133583,
    0.03441768139600754,
    -0.018356837332248688,
    0.07472916692495346,
    -0.01321306824684143,
    0.00997849553823471,
    0.062375180423259735,
    0.06339044123888016,
    0.017375938594341278,
    -0.00773998349905014,
    -0.056302979588508606,
    -0.0032560527324676514,
    0.016124196350574493,
    0.08049971610307693,
    -0.046104464679956436,
    0.04296392947435379,
    -0.06306686997413635,
    0.07339959591627121,
    0.04033737629652023,
    0.01770942658185959,
    -0.08410405367612839,
    0.0640222504734993,
    0.0037061646580696106,
    -0.07370799779891968,
    0.06371808797121048,
    0.07565484195947647,
    0.08068843930959702,
    -0.013958461582660675,
    0.03775602579116821,
    0.03790200501680374,
    -0.052679963409900665,
    0.018032290041446686,
    -0.07088705152273178,
    -0.06651918590068817,
    0.01050509512424469,
    0.04939582198858261,
    -0.04330521821975708,
    0.030335232615470886,
    -0.012604407966136932,
    0.0031237900257110596,
    0.014347687363624573,
    -0.053713828325271606,
    0.08205822855234146,
    -0.03425263240933418,
    -0.07421969622373581,
    0.04167570918798447,
    -0.026796147227287292,
    -0.02228689193725586,
    0.0541883185505867,
    0.01783699542284012,
    0.08329514414072037,
    0.048117004334926605,
    0.004456870257854462,
    0.0231015607714653,
    0.04494357854127884,
    -0.024864554405212402,
    0.0668669119477272,
    0.07732046395540237,
    0.07280571013689041,
    0.007132641971111298,
    -0.07409700006246567,
    0.017112642526626587,
    0.06316597014665604,
    -0.02397434040904045,
    -0.02906695008277893,
    -0.037592437118291855,
    0.03460371494293213,
    0.06624316424131393,
    0.007517553865909576,
    0.03282824158668518,
    0.05085902661085129,
    0.04180619865655899,
    -0.07679948210716248,
    0.03038075566291809,
    0.07239488512277603,
    -0.06635459512472153,
    -0.06728397309780121,
    -0.030655790120363235,
    0.07939188927412033,
    0.022262707352638245,
    -0.009924784302711487,
    0.03658845275640488,
    -0.05108974128961563,
    -0.03147266060113907,
    -0.05702958256006241,
    0.006582275032997131,
    -0.07579416036605835,
    0.07699603587388992,
    -0.04152623936533928,
    -0.044672273099422455,
    -0.04755300283432007,
    -0.07739745825529099,
    0.04978487640619278,
    -0.07311708480119705,
    -0.03598761186003685,
    -0.070988729596138,
    -0.017740637063980103,
    0.052451588213443756,
    -0.05360826104879379,
    -0.04973600432276726,
    -0.04273032769560814,
    -0.042962804436683655,
    -0.025473255664110184,
    -0.033340904861688614,
    0.004443556070327759,
    0.020125627517700195,
    0.03667813539505005,
    0.020412370562553406,
    -0.0465623140335083,
    0.0019471794366836548,
    -0.07537497580051422,
    0.07282727211713791,
    -0.024874500930309296,
    -0.04368337243795395,
    0.030086815357208252,
    -0.04375220090150833,
    -0.004927940666675568,
    -0.014805778861045837,
    0.05655419081449509,
    0.022144421935081482,
    0.07885626703500748,
    0.04784112423658371,
    0.06897266954183578,
    -0.04459584504365921,
    -0.05964884161949158,
    0.07171986252069473,
    -0.0640735849738121,
    0.002171814441680908,
    0.06852739304304123,
    -0.054114364087581635,
    -0.024067874997854233,
    -0.0023051127791404724,
    -0.03366827964782715,
    0.07455834001302719,
    -0.060278017073869705,
    0.02853565663099289,
    -0.01915968954563141,
    0.04336833208799362,
    -0.05338139832019806,
    0.043339408934116364,
    0.08158094435930252,
    -0.06110677868127823,
    -0.008443601429462433,
    0.050240255892276764,
    -0.05110977590084076,
    0.026522941887378693,
    -0.06342573463916779,
    -0.07398242503404617,
    0.04525383561849594,
    0.0649263933300972,
    -0.08194535970687866,
    0.001263551414012909,
    0.05188033729791641,
    -0.01268063485622406,
    -0.018122397363185883,
    -0.01832681894302368,
    0.07298385351896286,
    -0.06619078665971756,
    0.05960579961538315,
    -0.008431747555732727,
    -0.03686109930276871,
    0.06983824819326401,
    0.07643809169530869,
    0.0647214725613594,
    -0.021032147109508514,
    -0.005744971334934235,
    -0.007568731904029846,
    0.010484091937541962,
    0.02101166546344757,
    0.04321546107530594,
    0.07921185344457626,
    0.05505283921957016,
    0.023647889494895935,
    0.05041757971048355,
    0.029707960784435272,
    0.058296360075473785,
    0.03615459054708481,
    0.06751274317502975,
    0.011490404605865479,
    0.056745730340480804,
    0.06310047954320908,
    -0.06827855110168457,
    0.0032311677932739258,
    0.06013114005327225,
    0.033768996596336365,
    0.03146534413099289,
    -0.03518443927168846,
    -0.018794454634189606,
    -0.013033881783485413,
    -0.08105646818876266,
    0.01178627461194992,
    0.015597157180309296,
    -0.014823570847511292,
    0.03337794542312622,
    0.04689360409975052,
    0.03812357038259506,
    0.0032265111804008484,
    -0.020193934440612793,
    -0.04223333299160004,
    0.02287670224905014,
    -0.061656564474105835,
    -0.0518563948571682,
    -0.07889904081821442,
    -0.0051930248737335205,
    -0.06353510916233063,
    0.039152875542640686,
    0.0317193940281868,
    -0.06396639347076416,
    0.03958539664745331,
    0.006664380431175232,
    0.03491070866584778,
    -0.032253071665763855,
    -0.07714962214231491,
    0.04695669561624527,
    0.019297927618026733,
    -0.07768066972494125,
    0.001239866018295288,
    0.023463569581508636,
    0.030045099556446075,
    0.04776456207036972,
    -0.06046755611896515,
    0.027009189128875732,
    0.03179299831390381,
    0.02026711404323578,
    -0.033674634993076324,
    -0.06128045544028282,
    0.022530697286128998,
    -0.025358323007822037,
    -0.038769010454416275,
    -0.053015679121017456,
    0.03625383973121643,
    -0.020370498299598694,
    0.07611433416604996,
    0.03895840793848038,
    -0.03867533430457115,
    -0.06108548492193222,
    -0.0829600915312767,
    0.024394571781158447,
    -0.022826343774795532,
    -0.013884119689464569,
    -0.08095603436231613,
    0.019501984119415283,
    -0.05009087175130844,
    0.05243193358182907,
    -0.0119008868932724,
    -0.02369549870491028,
    0.003076985478401184,
    0.04461812227964401,
    -0.03996928781270981,
    -0.049839187413454056,
    0.010999441146850586,
    0.017839528620243073,
    0.060866810381412506,
    0.02786845713853836,
    0.00882488489151001,
    -0.02524711564183235,
    0.072937972843647,
    -0.013474605977535248,
    -0.06232651323080063,
    -5.1058828830718994e-05,
    0.07738076895475388,
    -0.06923084706068039,
    0.03103775531053543,
    -0.01829078048467636,
    0.06727486103773117,
    0.0384155809879303,
    0.027097269892692566,
    -0.023159977048635483,
    0.053959377110004425,
    0.051105938851833344,
    -0.0672619491815567,
    -0.054336629807949066,
    -0.07744626700878143,
    -0.001312442123889923,
    -0.05327928066253662,
    0.05924869328737259,
    0.07691966742277145,
    0.05742818862199783,
    -0.060969606041908264,
    0.006541810929775238,
    4.4383108615875244e-05,
    0.05201026052236557,
    0.013750754296779633,
    0.020401284098625183,
    0.08028390258550644,
    0.01692039519548416,
    -0.013790003955364227,
    -0.027814950793981552,
    -0.016719326376914978,
    0.054003797471523285,
    0.07271861284971237,
    0.05712101608514786,
    0.04644978791475296,
    -0.002449914813041687,
    0.07155906409025192,
    0.03541063517332077,
    -0.07604470103979111,
    -0.06829226762056351,
    -0.013578690588474274,
    0.0493464395403862,
    -0.05056240037083626,
    0.056882359087467194,
    0.08280303329229355,
    0.008935362100601196,
    -0.04845837503671646,
    -0.01982312649488449,
    0.01419396698474884,
    0.045647032558918,
    -0.04001172259449959,
    0.017024457454681396,
    0.02875944972038269,
    0.013439767062664032,
    0.07908282428979874,
    0.05017351359128952,
    -0.008272133767604828,
    0.013760864734649658,
    -0.008593268692493439,
    -0.01291675865650177,
    -0.03113778680562973,
    0.009868033230304718,
    0.026204891502857208,
    -0.031408607959747314,
    -0.011488698422908783,
    -0.05282099172472954,
    0.0035711750388145447,
    0.0640331283211708,
    0.07907684892416,
    0.01842401921749115,
    0.04988665133714676,
    -0.024271953850984573,
    0.0010944455862045288,
    -0.052151381969451904,
    0.07673855870962143,
    -0.06863366067409515,
    -0.005467154085636139,
    0.05532623082399368,
    -0.05644438415765762,
    0.024355262517929077,
    -0.07776722311973572,
    8.48621129989624e-06,
    -0.018630385398864746,
    0.05744714289903641,
    0.07886748760938644,
    -0.06256546080112457,
    -0.0477604866027832,
    -0.0016266405582427979,
    0.0015842244029045105,
    0.05648427456617355,
    -0.04099112004041672,
    0.025386236608028412,
    -0.03467725217342377,
    -0.01503869891166687,
    0.05478740483522415,
    -0.08202164620161057,
    -0.07062511891126633,
    0.020592480897903442,
    0.004646770656108856,
    -0.07436784356832504,
    0.049484752118587494,
    0.034648433327674866,
    0.08283247798681259,
    -0.0023816078901290894,
    0.023111306130886078,
    0.007555954158306122,
    0.0722181424498558,
    -0.00913306325674057,
    -0.001972571015357971,
    0.019883349537849426,
    -0.05371665582060814,
    -0.041938185691833496,
    0.05704059451818466,
    0.07420369237661362,
    0.07481618970632553,
    -0.08153070509433746,
    -0.033096857368946075,
    -0.03501265123486519,
    -0.031806573271751404,
    0.042668186128139496,
    0.06547307223081589,
    -0.013974368572235107,
    0.060369230806827545,
    -0.06141897290945053,
    0.022517159581184387,
    0.011109620332717896,
    0.06122223287820816,
    0.020978175103664398,
    0.049791596829891205,
    0.08367303758859634,
    -0.08211646229028702,
    -0.005042970180511475,
    0.07040088623762131,
    0.01630130410194397,
    -0.04190393164753914,
    0.031002774834632874,
    0.017335690557956696,
    0.05534594506025314,
    0.02012486755847931,
    0.03278210014104843,
    0.00522787868976593,
    0.029395245015621185,
    0.05217915028333664,
    0.00015131384134292603,
    0.006713278591632843,
    -0.00869952142238617,
    0.04166192561388016,
    0.07791278511285782,
    -0.04763905704021454,
    0.039399608969688416,
    -0.07428278774023056,
    0.08263006061315536,
    0.04554130882024765,
    0.07067788392305374,
    -0.053339965641498566,
    0.0016130656003952026,
    -0.08247508108615875,
    0.032605111598968506,
    -0.019539184868335724,
    0.05177832394838333,
    -0.0585268959403038,
    0.08310993760824203,
    0.008224867284297943,
    -0.05311266705393791,
    -0.012677885591983795,
    0.07736732810735703,
    0.01004822552204132,
    -0.03608381748199463,
    0.07988906651735306,
    0.0556807741522789,
    -0.01071535050868988,
    0.026289641857147217,
    0.035533614456653595,
    0.05297916382551193,
    -0.0018067359924316406,
    -0.009563900530338287,
    0.016738779842853546,
    -0.011161044239997864,
    -0.02080366015434265,
    0.05678185075521469,
    0.025233402848243713,
    -0.03599834069609642,
    0.02200646698474884,
    -0.05248025804758072,
    -0.01852978765964508,
    0.06867820769548416,
    -0.08214662969112396,
    -0.02992260828614235,
    0.03262455016374588,
    0.02246399223804474,
    -0.029351048171520233,
    0.06425995379686356,
    -0.046175237745046616,
    0.03243916481733322,
    0.010038316249847412,
    -0.01858179271221161,
    0.073092021048069,
    -0.012503691017627716,
    0.0656125620007515,
    0.053707756102085114,
    0.023284777998924255,
    -0.01958196610212326,
    0.07226192206144333,
    -0.07034415006637573,
    0.07374154776334763,
    -0.0637168139219284,
    0.015086688101291656,
    0.07640915364027023,
    0.04245894402265549,
    -0.00027376413345336914,
    -0.07563981413841248,
    -0.04493480920791626,
    0.019698001444339752,
    0.012358374893665314,
    -0.014624446630477905,
    -0.008528955280780792,
    -0.07643372565507889,
    -0.07577276229858398,
    0.08034730702638626,
    0.07401692122220993,
    0.07065372914075851,
    0.021213479340076447,
    -0.07733748853206635,
    -0.04460607096552849,
    0.07434911280870438,
    0.05789240449666977,
    0.07542318850755692,
    0.003912225365638733,
    -0.006947271525859833,
    -0.07730425894260406,
    -0.011209554970264435,
    -0.06560482829809189,
    -0.05559031292796135,
    0.04722239822149277,
    -0.0034155920147895813,
    0.0017127543687820435,
    -0.06533144414424896,
    0.03866215795278549,
    0.02921202778816223,
    -0.03851168602705002,
    0.06960452347993851,
    0.043995387852191925,
    0.03555707633495331,
    0.05010414123535156,
    0.07477214187383652,
    -0.02305392175912857,
    0.015095226466655731,
    0.023443005979061127,
    -0.018574455752968788,
    -0.02773267775774002,
    -0.01884317770600319,
    -0.024365287274122238,
    -0.011554539203643799,
    0.04215341433882713,
    0.08068301528692245,
    0.006572180427610874,
    0.0700417086482048,
    0.044932104647159576,
    0.05111907050013542,
    0.006089312955737114,
    0.04830333963036537,
    -0.010042254813015461,
    0.07065809518098831,
    0.0264429934322834,
    0.02664511650800705,
    -0.06134406849741936,
    -0.04806740954518318,
    0.03456207737326622,
    0.019723497331142426,
    0.012975460849702358,
    -0.06256779283285141,
    0.09233555942773819,
    0.06692898273468018,
    0.06292254477739334,
    -0.032324522733688354,
    -0.06866306066513062,
    0.01306767389178276,
    0.08508886396884918,
    -0.06146343797445297,
    -0.03988196700811386,
    0.025158073753118515,
    0.002364611253142357,
    -0.019133277237415314,
    -0.03412461280822754,
    -0.019118862226605415,
    0.0483657643198967,
    0.010379965417087078,
    0.06401773542165756,
    -0.07011271268129349,
    -0.03599456325173378,
    0.04066464677453041,
    0.022503074258565903,
    0.05868683382868767,
    -0.030455332249403,
    -0.04078942909836769,
    -0.015772085636854172,
    -0.017726745456457138,
    -0.01927695795893669,
    -0.026197275146842003,
    0.048201773315668106,
    0.04164867848157883,
    -0.07055753469467163,
    -0.03692551329731941,
    -0.010092027485370636,
    0.05814662575721741,
    0.0167235154658556,
    0.08111903816461563,
    -0.04622862488031387,
    -0.006603779271245003,
    0.10195650160312653,
    0.05389002710580826,
    0.0050545562990009785,
    0.08317002654075623,
    -0.04303804785013199,
    0.07683378458023071,
    -0.01037193089723587,
    -0.056107670068740845,
    -0.035178881138563156,
    -0.03211371973156929,
    0.0007299997960217297,
    0.052961163222789764,
    0.03880741447210312,
    -0.06391069293022156,
    -0.014367837458848953,
    -0.03525107353925705,
    0.029425887390971184,
    0.02282617799937725,
    0.07192791998386383,
    -0.0029401658102869987,
    0.042691297829151154,
    -0.02882097288966179,
    0.007537771947681904,
    -0.06840281188488007,
    -0.0048173051327466965,
    -0.06660539656877518,
    -0.06593511998653412,
    0.0007224203436635435,
    0.07027683407068253,
    0.048186905682086945,
    0.03486791253089905,
    -0.03566255420446396,
    0.1193721666932106,
    -0.024824809283018112,
    0.0674605593085289,
    0.022832833230495453,
    -0.0007369270897470415,
    -0.038545139133930206,
    0.008367853239178658,
    -0.003816367592662573,
    -0.016303541138768196,
    -0.028393106535077095,
    0.0042920541018247604,
    -0.07381101697683334,
    0.07596228271722794,
    -0.02851032093167305,
    -0.005720369517803192,
    -0.03250886872410774,
    -0.07888858020305634,
    0.1017240360379219,
    0.03010082058608532,
    0.04941752552986145,
    0.024733584374189377,
    -0.010201705619692802,
    -0.02378465235233307,
    0.0724407508969307,
    -0.05908879637718201,
    0.0376892015337944,
    0.02208784967660904,
    0.02754613570868969,
    0.05473354831337929,
    0.062129709869623184,
    0.053857482969760895,
    -0.11610652506351471,
    0.03640301153063774,
    -0.053705669939517975,
    -0.07263801991939545,
    0.11047335714101791,
    -0.15369060635566711,
    0.020253028720617294,
    -0.004576199222356081,
    -0.07490143924951553,
    0.1742735058069229,
    -0.030175380408763885,
    -0.0407877042889595,
    0.15667617321014404,
    -0.07645416259765625,
    -0.014244862832129002,
    -0.07054319232702255,
    0.19666045904159546,
    0.04827035591006279,
    -0.08328335732221603,
    0.07842867076396942,
    -0.0037070962134748697,
    0.04866845905780792,
    0.012667530216276646,
    0.1297808438539505,
    -0.18482737243175507,
    0.03591027855873108,
    0.016204997897148132,
    -0.0598275400698185,
    0.0915646106004715,
    -0.07198783755302429,
    0.1307080239057541,
    -0.056156810373067856,
    -0.09382633119821548,
    0.09293311089277267,
    0.03455653041601181,
    -0.11734899878501892,
    -0.04327163100242615,
    0.16478246450424194,
    0.054251156747341156,
    0.009374932385981083,
    -0.13981401920318604,
    0.008229414001107216,
    0.1832529902458191,
    0.12791824340820312,
    -0.07879902422428131,
    0.12241198867559433,
    -0.04058470204472542,
    -0.007791713811457157,
    0.02854975312948227,
    -0.10337664932012558,
    0.09946220368146896,
    0.10970563441514969,
    0.006441707722842693,
    -0.03847901523113251,
    -0.19579900801181793,
    0.1946314424276352,
    -0.05218896269798279,
    -0.022214291617274284,
    0.07392186671495438,
    -0.0052259257063269615,
    -0.18532854318618774,
    0.164047971367836,
    0.016666628420352936,
    -0.0335080586373806,
    0.016482321545481682,
    0.10802525281906128,
    0.019279256463050842,
    0.020390300080180168,
    0.16814304888248444,
    -0.15456663072109222,
    0.07115097343921661,
    -0.06982836872339249,
    -0.18165521323680878,
    0.2055988311767578,
    -0.05540349707007408,
    -0.0038900978397578,
    0.1887609213590622,
    0.020144350826740265,
    0.02311091497540474,
    -0.05120514705777168,
    0.15938980877399445,
    0.04077921062707901,
    -0.10288163274526596,
    -0.02766445092856884,
    -0.08641552925109863,
    -0.08986739069223404,
    0.009684582240879536,
    0.03749293461441994,
    -0.1785113513469696,
    0.12583957612514496,
    -0.002330941380932927,
    0.07038017362356186,
    0.03147055208683014,
    -0.07539211958646774,
    0.1629987508058548,
    -0.01676250249147415,
    -0.18423952162265778,
    0.09134110063314438,
    0.20265497267246246,
    -0.11136018484830856,
    -0.05208459123969078,
    0.15767209231853485,
    0.03745569288730621,
    0.06284133344888687,
    -0.2577456831932068,
    -0.02658936008810997,
    0.19132709503173828,
    0.2135637402534485,
    -0.1369745284318924,
    0.2066965401172638,
    0.060385361313819885,
    0.06577127426862717,
    0.0015950854867696762,
    0.02426011487841606,
    0.24017541110515594,
    0.0866648405790329,
    0.037656258791685104,
    -0.028507128357887268,
    -0.08049598336219788,
    0.1243615671992302,
    0.07828675955533981,
    -0.0030654314905405045,
    -0.01607084833085537,
    0.009060177020728588,
    -0.13773533701896667,
    0.15901266038417816,
    -0.03884197399020195,
    0.036664627492427826,
    0.09838686138391495,
    0.12624160945415497,
    0.04217983037233353,
    -0.10147459805011749,
    0.11679419875144958,
    -0.13825061917304993,
    0.026346828788518906,
    0.07157423347234726,
    -0.06610864400863647,
    0.2971983850002289,
    0.019528739154338837,
    -0.0787765309214592,
    0.3248050808906555,
    -0.0702429935336113,
    0.045416925102472305,
    -0.08311296999454498,
    0.30970361828804016,
    0.020883852615952492,
    -0.19343630969524384,
    0.07067277282476425,
    -0.050597935914993286,
    -0.018210362643003464,
    0.02657940611243248,
    -0.10182484984397888,
    -0.13800039887428284,
    0.20179665088653564,
    -0.011280765756964684,
    0.0747617855668068,
    0.03524274751543999,
    0.025717461481690407,
    0.23637236654758453,
    0.0615282878279686,
    -0.07405077666044235,
    0.14699368178844452,
    0.24067291617393494,
    -0.0671299397945404,
    -0.18099550902843475,
    0.1851869374513626,
    0.027771208435297012,
    0.07419111579656601,
    -0.2713771462440491,
    0.08781541883945465,
    0.31906020641326904,
    0.2785245180130005,
    -0.09762296825647354,
    0.09512858092784882,
    -0.018300313502550125,
    0.09064840525388718,
    0.03272252902388573,
    -0.03901419788599014,
    0.25886356830596924,
    0.16412761807441711,
    0.019827980548143387,
    -0.05252039432525635,
    -0.2658936083316803,
    0.2061721682548523,
    -0.07928747683763504,
    0.009057069197297096,
    -0.022782549262046814,
    0.0005270566325634718,
    -0.12772227823734283,
    0.014035765081644058,
    -0.07336346805095673,
    -0.06959507614374161,
    0.19802118837833405,
    0.2566583454608917,
    -0.05728072300553322,
    -0.1315487176179886,
    0.270418256521225,
    0.10954562574625015,
    0.03170829638838768,
    -0.09478737413883209,
    -0.09737636148929596,
    0.3633825182914734,
    0.06051304563879967,
    -0.08086123317480087,
    0.2666355073451996,
    0.06088988482952118,
    -0.008065851405262947,
    -0.07883826643228531,
    0.2893812656402588,
    -0.036611370742321014,
    -0.13106049597263336,
    0.15457655489444733,
    -0.06200558319687843,
    0.011549497954547405,
    -0.015988122671842575,
    -0.2226179838180542,
    -0.09728718549013138,
    0.23623980581760406,
    -0.04546654224395752,
    0.11534623801708221,
    -0.08330319821834564,
    0.022208403795957565,
    0.36100807785987854,
    0.12140613049268723,
    -0.12171820551156998,
    0.26104843616485596,
    0.3132450580596924,
    -0.2300855815410614,
    -0.02630588598549366,
    0.3560043275356293,
    0.04356326907873154,
    -0.06865450739860535,
    -0.3216989040374756,
    0.21320126950740814,
    0.24473662674427032,
    0.30601581931114197,
    -0.2660243809223175,
    0.19211122393608093,
    -0.0034394615795463324,
    0.02607213705778122,
    -0.08845866471529007,
    -0.13388587534427643,
    0.24907755851745605,
    0.23295524716377258,
    0.09429865330457687,
    0.053270455449819565,
    -0.24306857585906982,
    0.2990875840187073,
    -0.056530438363552094,
    0.09851665794849396,
    0.07493215054273605,
    0.05005451291799545,
    -0.24294254183769226,
    0.04781483858823776,
    0.004414179362356663,
    0.014730552211403847,
    0.24427227675914764,
    0.1663968563079834,
    -0.003957600332796574,
    -0.20380036532878876,
    0.13911469280719757,
    0.14747421443462372,
    -0.04636690393090248,
    0.018839970231056213,
    -0.18070100247859955,
    0.3893009126186371,
    0.35371023416519165,
    -0.11504518240690231,
    0.23487024009227753,
    0.07006843388080597,
    0.1529187709093094,
    -0.1272304207086563,
    0.4368046522140503,
    -0.11760581284761429,
    -0.1423283964395523,
    0.1950634866952896,
    -0.050508949905633926,
    -0.07668908685445786,
    -0.13260987401008606,
    -0.3053686320781708,
    0.03326446935534477,
    0.3561565577983856,
    0.0350692942738533,
    0.22142532467842102,
    -0.14920715987682343,
    0.012184357270598412,
    0.44131189584732056,
    0.11264367401599884,
    -0.19062793254852295,
    0.4143162667751312,
    0.3389875888824463,
    -0.08432835340499878,
    -0.1240064799785614,
    0.31511205434799194,
    -0.035614002496004105,
    0.00031090606353245676,
    -0.48011964559555054,
    0.49267321825027466,
    0.26844555139541626,
    0.26508525013923645,
    -0.24618834257125854,
    0.2809668779373169,
    -0.05303945019841194,
    0.01003931276500225,
    -0.06570231169462204,
    -0.09358515590429306,
    0.28949716687202454,
    0.36546915769577026,
    0.04570378363132477,
    -0.032822106033563614,
    -0.2922399938106537,
    0.3384760916233063,
    -0.038835592567920685,
    0.17956750094890594,
    0.03248490393161774,
    -0.015715599060058594,
    -0.17221464216709137,
    0.0339423269033432,
    -0.07812469452619553,
    -0.023224983364343643,
    0.1657983958721161,
    0.4228460490703583,
    0.03744473308324814,
    -0.17162927985191345,
    0.35300761461257935,
    0.12504999339580536,
    -0.21523736417293549,
    -0.02469305880367756,
    -0.28525251150131226,
    0.3093680441379547,
    0.2875857651233673,
    0.07504750043153763,
    0.28537192940711975,
    0.06690993905067444,
    0.26626095175743103,
    -0.07154417037963867,
    0.371443510055542,
    -0.09727931767702103,
    -0.2326464205980301,
    0.13686630129814148,
    -0.11253198981285095,
    -0.15574736893177032,
    0.06929393112659454,
    -0.35249820351600647,
    -0.001712205121293664,
    0.4294542372226715,
    -0.005640330258756876,
    0.24780115485191345,
    -0.10592103004455566,
    0.03577147796750069,
    0.3072483241558075,
    -0.06613677740097046,
    -0.18628276884555817,
    0.4812661409378052,
    0.4551297724246979,
    -0.13870540261268616,
    0.05727415904402733,
    0.3139927387237549,
    0.022647429257631302,
    -0.055807195603847504,
    -0.38529086112976074,
    0.415755957365036,
    0.27069491147994995,
    0.31822872161865234,
    -0.06695836782455444,
    0.09889733046293259,
    -0.11294889450073242,
    -0.01706485077738762,
    0.04492819309234619,
    -0.2646675705909729,
    0.32439249753952026,
    0.3616013824939728,
    0.08504489064216614,
    -0.027757545933127403,
    -0.31035116314888,
    0.4149867594242096,
    0.013693328015506268,
    0.3060610592365265,
    0.04800165817141533,
    -0.0886378288269043,
    -0.3774549961090088,
    0.006330195348709822,
    0.0018007124308496714,
    -0.049592193216085434,
    0.11094527691602707,
    0.39276233315467834,
    0.013333465903997421,
    -0.09688916057348251,
    0.31750476360321045,
    0.032575156539678574,
    -0.16162265837192535,
    -0.06801654398441315,
    -0.305569589138031,
    0.3253583610057831,
    0.21061107516288757,
    0.08553367108106613,
    0.2977903187274933,
    0.032548196613788605,
    0.3951431214809418,
    -0.2657787799835205,
    0.4126640260219574,
    -0.08584701269865036,
    -0.2759754955768585,
    0.3063804805278778,
    -0.08470849692821503,
    -0.07092051208019257,
    0.07211892306804657,
    -0.1899607926607132,
    -0.026769597083330154,
    0.4257729649543762,
    -0.008247173391282558,
    0.247408926486969,
    -0.013178233988583088,
    0.06268082559108734,
    0.29817286133766174,
    -0.08571179956197739,
    -0.1816154569387436,
    0.7167105078697205,
    0.49686649441719055,
    -0.26170533895492554,
    -0.08111851662397385,
    0.43814900517463684,
    -0.08337404578924179,
    -0.2002672255039215,
    -0.43443962931632996,
    0.39364707469940186,
    0.4300256073474884,
    0.300835520029068,
    -0.17012527585029602,
    0.31414541602134705,
    -0.01754489354789257,
    -0.051820818334817886,
    -0.05877886340022087,
    -0.2741713523864746,
    0.4094993770122528,
    0.43132704496383667,
    -0.03044508397579193,
    0.05411165580153465,
    -0.2838149666786194,
    0.5310322046279907,
    -0.04378139600157738,
    0.2365563064813614,
    0.0625988245010376,
    -0.033139292150735855,
    -0.40984782576560974,
    0.06394974142313004,
    0.035702139139175415,
    0.015596728771924973,
    0.22658194601535797,
    0.4280247986316681,
    0.0024613067507743835,
    -0.09696559607982635,
    0.3232184648513794,
    0.07051177322864532,
    -0.06342639029026031,
    -0.004061881452798843,
    -0.15373589098453522,
    0.3027556240558624,
    0.21685199439525604,
    -0.03664012998342514,
    0.22330214083194733,
    0.08398273587226868,
    0.4250729978084564,
    -0.004454103298485279,
    0.27197086811065674,
    0.11685526371002197,
    -0.28585880994796753,
    0.17704567313194275,
    -0.07973198592662811,
    -0.15135884284973145,
    0.13768219947814941,
    -0.23230844736099243,
    -0.1328212320804596,
    0.34397226572036743,
    0.03100142441689968,
    0.12416288256645203,
    0.08472980558872223,
    -0.01157447975128889,
    0.39592042565345764,
    0.025063611567020416,
    -0.2245190292596817,
    0.5640774369239807,
    0.16228924691677094,
    -0.16071683168411255,
    0.04825804382562637,
    0.22177335619926453,
    -0.060603052377700806,
    -0.18963801860809326,
    -0.2956501543521881,
    0.29634639620780945,
    0.2824835479259491,
    0.2568339705467224,
    -0.21542073786258698,
    0.33701303601264954,
    0.0059255026280879974,
    -0.0657484382390976,
    0.060791898518800735,
    -0.1124340072274208,
    0.11317017674446106,
    0.4448123574256897,
    0.058492034673690796,
    0.20555345714092255,
    -0.3010212779045105,
    0.4643627107143402,
    0.0007305190665647388,
    0.3116346299648285,
    0.08100064843893051,
    -0.05286908894777298,
    -0.27991384267807007,
    0.19412414729595184,
    0.01807996816933155,
    0.22105446457862854,
    0.080243319272995,
    0.2288798838853836,
    -0.07174958288669586,
    -0.05471637099981308,
    0.26712173223495483,
    -0.07279860228300095,
    0.03746486455202103,
    -0.07058922201395035,
    -0.09838400036096573,
    0.046783726662397385,
    0.2595100402832031,
    0.012610014528036118,
    0.015388811938464642,
    0.0014960349071770906,
    0.3689833879470825,
    -0.1694498062133789,
    0.20881971716880798,
    0.0966370478272438,
    -0.17384977638721466,
    0.2602914273738861,
    -0.01944804936647415,
    -0.21041640639305115,
    -0.10431163012981415,
    -0.08118832856416702,
    -0.09999410063028336,
    0.5369280576705933,
    -0.035421110689640045,
    0.13877683877944946,
    0.10844504088163376,
    -0.09350104629993439,
    0.30938905477523804,
    0.07670191675424576,
    -0.22202101349830627,
    0.6886551380157471,
    0.2965693473815918,
    -0.14019565284252167,
    0.11221921443939209,
    0.23791362345218658,
    -0.06439795345067978,
    -0.1493651419878006,
    -0.3280928432941437,
    0.4824015200138092,
    0.1774970144033432,
    0.19738435745239258,
    -0.22416898608207703,
    0.36639130115509033,
    -0.08750808238983154,
    -0.09721069037914276,
    0.17554335296154022,
    -0.06473881751298904,
    0.02746441215276718,
    0.468047559261322,
    0.08110219240188599,
    0.370633065700531,
    -0.5679129362106323,
    0.3692339360713959,
    -0.13119983673095703,
    0.2530539929866791,
    0.1410367637872696,
    -0.08227711915969849,
    -0.2706688940525055,
    0.13021916151046753,
    -0.020570367574691772,
    0.20823554694652557,
    -0.115819551050663,
    0.37421783804893494,
    -0.1199086606502533,
    -0.08459630608558655,
    0.4851534962654114,
    -0.30638203024864197,
    0.18231680989265442,
    -0.16542185842990875,
    -0.12787064909934998,
    0.1742303967475891,
    0.09693274646997452,
    0.019647326320409775,
    0.08054083585739136,
    -0.1266556978225708,
    0.17587924003601074,
    -0.13200482726097107,
    0.3297358751296997,
    0.12270883470773697,
    0.03224567696452141,
    0.09830382466316223,
    0.007816917262971401,
    -0.1130325049161911,
    0.1425761878490448,
    0.11714503914117813,
    -0.17427560687065125,
    0.2732902765274048,
    -0.04206885024905205,
    0.011730825528502464,
    0.20839452743530273,
    0.014447086490690708,
    0.16784022748470306,
    0.2747197449207306,
    -0.15493634343147278,
    0.5893444418907166,
    0.4024691581726074,
    -0.034054793417453766,
    0.2359725534915924,
    0.23628348112106323,
    -0.13956694304943085,
    -0.04804573953151703,
    -0.4345878064632416,
    0.4982377290725708,
    0.22350212931632996,
    0.3516579866409302,
    -0.1715342253446579,
    0.18802842497825623,
    0.26541316509246826,
    0.07853132486343384,
    -0.06142019107937813,
    0.05947457253932953,
    0.22977523505687714,
    0.39590340852737427,
    0.07852431386709213,
    0.29999643564224243,
    -0.557971179485321,
    0.4788014590740204,
    -0.10654734075069427,
    0.22594739496707916,
    0.03609088063240051,
    -0.015258124098181725,
    -0.28695887327194214,
    0.23540936410427094,
    0.03079122304916382,
    0.20059098303318024,
    0.0011385506950318813,
    0.22346587479114532,
    -0.020933952182531357,
    -0.14653708040714264,
    0.47169792652130127,
    -0.28693145513534546,
    0.2898498475551605,
    -0.19622422754764557,
    -0.12327664345502853,
    0.13438569009304047,
    -0.09285041689872742,
    0.06169120967388153,
    0.2912624478340149,
    -0.03947066143155098,
    0.12013205885887146,
    -0.10433292388916016,
    0.40243566036224365,
    -0.035832833498716354,
    0.03038766235113144,
    -0.024767452850937843,
    0.009264012798666954,
    -0.0642666295170784,
    0.3175884783267975,
    0.17753064632415771,
    -0.07594422996044159,
    0.31637147068977356,
    -0.023473434150218964,
    -0.1245943009853363,
    0.2070736140012741,
    -0.08680183440446854,
    0.17204520106315613,
    0.2588529884815216,
    -0.14653366804122925,
    0.7345848083496094,
    0.36946892738342285,
    0.026722876355051994,
    0.15276996791362762,
    0.24372591078281403,
    0.0009492828976362944,
    0.09113949537277222,
    -0.3653816878795624,
    0.6150181889533997,
    0.24798539280891418,
    0.4507329761981964,
    -0.1912173181772232,
    0.23973527550697327,
    0.20440618693828583,
    -0.012472579255700111,
    -0.04936538264155388,
    0.15795467793941498,
    0.3183076083660126,
    0.33814898133277893,
    0.09045477956533432,
    0.2687554955482483,
    -0.3678939938545227,
    0.4789988696575165,
    -0.04875139892101288,
    0.3780037462711334,
    -0.0029174471274018288,
    -0.07233837246894836,
    -0.14978522062301636,
    0.2568185329437256,
    -0.05026358366012573,
    -0.010069291107356548,
    -0.03178815543651581,
    0.2835734486579895,
    -0.13703911006450653,
    -0.40232908725738525,
    0.46206772327423096,
    -0.13358131051063538,
    0.08665034174919128,
    -0.2615329921245575,
    -0.12026502192020416,
    0.22119861841201782,
    -0.14579211175441742,
    0.06623310595750809,
    0.16605423390865326,
    0.18601374328136444,
    0.28955337405204773,
    -0.2565998136997223,
    0.5105818510055542,
    0.0036375275813043118,
    -0.004472973756492138,
    0.19141213595867157,
    -0.0693739578127861,
    -0.0062751383520662785,
    0.3201765716075897,
    0.011510010808706284,
    -0.10776258260011673,
    0.3674747943878174,
    -0.052579790353775024,
    -0.0318724550306797,
    0.08174725621938705,
    -0.09046649932861328,
    0.30372193455696106,
    0.1503639817237854,
    -0.13318218290805817,
    0.6398863792419434,
    0.3308402895927429,
    -0.008222238160669804,
    0.10773622989654541,
    0.2988218665122986,
    0.039380863308906555,
    0.06277573108673096,
    -0.4347650706768036,
    0.6201475262641907,
    0.5140186548233032,
    0.6480863094329834,
    -0.18944662809371948,
    0.3881186544895172,
    0.2730500102043152,
    -0.03455683961510658,
    -0.047344621270895004,
    0.11854474246501923,
    0.3926966190338135,
    0.2925739288330078,
    0.0007003024220466614,
    0.08937138319015503,
    -0.2456316202878952,
    0.6270594000816345,
    0.01244308054447174,
    0.39665496349334717,
    -0.13698719441890717,
    -0.07050947844982147,
    -0.20226076245307922,
    0.3740660548210144,
    0.05225037783384323,
    -0.16063274443149567,
    0.04798892140388489,
    0.34363335371017456,
    -0.032266855239868164,
    -0.4677179753780365,
    0.39223381876945496,
    -0.17979583144187927,
    -0.044113557785749435,
    0.16610917448997498,
    -0.2282390296459198,
    0.4506232440471649,
    0.3508296012878418,
    0.07353003323078156,
    0.3661004304885864,
    0.07916253805160522,
    0.3686627149581909,
    -0.41759592294692993,
    0.510612964630127,
    -0.1567729264497757,
    -0.21665313839912415,
    0.5067692995071411,
    0.05997006222605705,
    -0.14564761519432068,
    0.2411895990371704,
    -0.1411973237991333,
    -0.0057564591988921165,
    0.5296412110328674,
    0.012169159948825836,
    0.24894358217716217,
    0.03994210436940193,
    0.00039756856858730316,
    0.5195032358169556,
    0.10818558931350708,
    -0.08022609353065491,
    0.564758837223053,
    0.47147488594055176,
    -0.4834004342556,
    -0.13799336552619934,
    0.5662720203399658,
    0.014411303214728832,
    -0.06318739056587219,
    -0.492890864610672,
    0.33371371030807495,
    0.5437802076339722,
    0.5863567590713501,
    -0.24212154746055603,
    0.6511713266372681,
    -0.01293284259736538,
    -0.0758158266544342,
    0.1606469303369522,
    -0.24963849782943726,
    0.49134230613708496,
    0.3349429965019226,
    -0.07535434514284134,
    -0.026988208293914795,
    -0.13550271093845367,
    0.3411082923412323,
    -0.11750683933496475,
    0.26553142070770264,
    0.16917690634727478,
    0.0011215880513191223,
    -0.3218218684196472,
    0.23325401544570923,
    0.03324141353368759,
    -0.14587216079235077,
    0.014068366959691048,
    0.2118261158466339,
    -0.015565423294901848,
    -0.22888505458831787,
    0.23372061550617218,
    -0.10034221410751343,
    -0.08605223149061203,
    0.04720357432961464,
    -0.2346484214067459,
    0.37877634167671204,
    0.2597770392894745,
    0.04510835185647011,
    0.2787216305732727,
    -0.014432668685913086,
    0.22616204619407654,
    -0.4333377778530121,
    0.5005687475204468,
    -0.18435460329055786,
    -0.3012098968029022,
    0.5778844952583313,
    -0.08278219401836395,
    -0.003318305127322674,
    0.20155957341194153,
    -0.06667108088731766,
    -0.12447590380907059,
    0.4109066128730774,
    0.027494385838508606,
    0.27646908164024353,
    -0.03265766426920891,
    0.06575355678796768,
    0.4925943911075592,
    -0.08188808709383011,
    -0.009290271438658237,
    0.5433480739593506,
    0.4588005840778351,
    -0.41259700059890747,
    -0.2311241179704666,
    0.5140196084976196,
    -0.08256731927394867,
    0.015651501715183258,
    -0.5061448216438293,
    0.18773110210895538,
    0.5015824437141418,
    0.4252534806728363,
    -0.17895197868347168,
    0.4645657539367676,
    -0.13026390969753265,
    -0.11775942891836166,
    0.14365649223327637,
    -0.23368339240550995,
    0.3755825459957123,
    0.28799933195114136,
    0.04141087085008621,
    -0.0353277362883091,
    -0.23878394067287445,
    0.2892284393310547,
    -0.021848076954483986,
    0.27049535512924194,
    0.3986833393573761,
    -0.023934027180075645,
    -0.4127117991447449,
    0.09102813154459,
    0.08247695118188858,
    -0.03637149930000305,
    0.012582272291183472,
    0.17716458439826965,
    0.06701812893152237,
    -0.23308217525482178,
    0.25601232051849365,
    0.043077755719423294,
    -0.12429822981357574,
    0.09438216686248779,
    -0.1980329155921936,
    0.4297291338443756,
    -0.011020459234714508,
    0.061001889407634735,
    0.31269410252571106,
    0.0336800217628479,
    0.04281526431441307,
    -0.309948205947876,
    0.3110106885433197,
    -0.1286787986755371,
    -0.23558388650417328,
    0.3766104280948639,
    0.023002594709396362,
    -0.06825253367424011,
    0.057925015687942505,
    -0.1411038637161255,
    -0.008746685460209846,
    0.27628639340400696,
    -0.030311904847621918,
    0.28651201725006104,
    0.07074972987174988,
    0.0012072771787643433,
    0.35435396432876587,
    -0.06339585781097412,
    -0.03145139291882515,
    0.34229204058647156,
    0.43702250719070435,
    -0.35809585452079773,
    -0.2344653159379959,
    0.36838239431381226,
    -0.06843515485525131,
    0.03147219493985176,
    -0.32731762528419495,
    0.016222631558775902,
    0.3201625943183899,
    0.2952030301094055,
    -0.11228498071432114,
    0.37731868028640747,
    -0.025083379819989204,
    -0.09498573839664459,
    0.03526831790804863,
    -0.13213743269443512,
    0.3916319012641907,
    0.21081982553005219,
    -0.0009869416244328022,
    -0.07806137204170227,
    -0.08795081824064255,
    0.19051340222358704,
    0.0026572714559733868,
    0.2158816158771515,
    0.35730960965156555,
    0.046538304537534714,
    -0.23225076496601105,
    0.020513664931058884,
    -0.051163870841264725,
    -0.05555910989642143,
    0.10825526714324951,
    0.14536423981189728,
    0.003096962347626686,
    -0.19616536796092987,
    0.22781626880168915,
    0.06438931822776794,
    0.022173291072249413,
    0.08148741722106934,
    -0.14936590194702148,
    0.24648641049861908,
    0.13081416487693787,
    0.009424823336303234,
    0.1671171486377716,
    -0.08689230680465698,
    -0.0023844391107559204,
    -0.2792036533355713,
    0.1917269229888916,
    -0.14373363554477692,
    -0.11242423206567764,
    0.19067856669425964,
    -0.06528579443693161,
    -0.0209808312356472,
    -0.07210803031921387,
    -0.054568514227867126,
    -0.024173231795430183,
    0.3067810535430908,
    0.06191221624612808,
    0.20098133385181427,
    -0.15345844626426697,
    -0.05301227420568466,
    0.1708800196647644,
    -0.0728103443980217,
    -0.05378883332014084,
    0.16916535794734955,
    0.25206559896469116,
    -0.17921002209186554,
    -0.03986002132296562,
    0.18736815452575684,
    -0.027122104540467262,
    -0.09124284982681274,
    -0.2354692816734314,
    0.11134769022464752,
    0.24382205307483673,
    0.0997699499130249,
    -0.16930246353149414,
    0.25507479906082153,
    -0.139049232006073,
    -0.002389460802078247,
    -0.019975218921899796,
    -0.12070116400718689,
    0.15446624159812927,
    0.15295444428920746,
    0.04934387281537056,
    0.02520761638879776,
    -0.033790308982133865,
    -0.016814298927783966,
    0.03934553638100624,
    0.2038249671459198,
    0.153000146150589,
    0.0652594342827797,
    -0.0905076116323471,
    -0.034012939780950546,
    0.05481208488345146,
    0.020985081791877747,
    -0.05054892972111702,
    0.04560661315917969,
    0.03531908988952637,
    -0.055378399789333344,
    0.1448015719652176,
    -0.004588500130921602,
    0.04774773493409157,
    -0.04581698030233383,
    -0.09475795924663544,
    0.11039917171001434,
    0.006342907436192036,
    -0.050501979887485504,
    0.10654578357934952,
    0.08274314552545547,
    -0.04452180862426758,
    -0.14430518448352814,
    0.2303955852985382,
    -0.1477968841791153,
    -0.07051896303892136,
    0.1407669335603714,
    -0.026905003935098648,
    -0.10224072635173798,
    0.09667923301458359,
    0.027960795909166336,
    -0.0416012704372406,
    0.11923819035291672,
    -0.01802029088139534,
    0.049962326884269714,
    -0.13301752507686615,
    0.04690760746598244,
    0.12521982192993164,
    0.034971073269844055,
    -0.08266487717628479,
    0.10492758452892303,
    0.1512123942375183,
    -0.15802119672298431,
    -0.02415231615304947,
    0.21973997354507446,
    0.010234745219349861,
    0.01691320165991783,
    -0.08584725111722946,
    -0.03272576257586479,
    0.1520446240901947,
    0.1264546513557434,
    -0.08794178068637848,
    0.20160408318042755,
    0.0255332849919796,
    -0.06776943057775497,
    -0.0006940437015146017,
    -0.06650345772504807,
    0.19005915522575378,
    0.17121367156505585,
    0.06691651046276093,
    0.04808013141155243,
    -0.07592867314815521,
    0.15977010130882263,
    0.05556277930736542,
    0.15380463004112244,
    0.016215765848755836,
    -0.06615464389324188,
    -0.050104059278964996,
    0.016972433775663376,
    -0.046143028885126114,
    -0.0892450287938118,
    0.00014683627523481846,
    -0.00452698627486825,
    -0.04867849498987198,
    -0.018285313621163368,
    0.1440264880657196,
    -0.08703205734491348,
    0.06620551645755768,
    -0.0005032718181610107,
    -0.14437012374401093,
    0.1771099716424942,
    -0.13488566875457764,
    -0.02959737554192543,
    0.01780690997838974,
    -0.07951722294092178,
    -0.017464449629187584,
    -0.00013307161862030625,
    0.03424020856618881,
    -0.09455756843090057,
    -0.015316319651901722,
    0.12602411210536957,
    0.07338210195302963,
    -0.02577274478971958,
    0.04443909227848053,
    0.13442987203598022,
    -0.06724472343921661,
    0.054175786674022675,
    -0.0429435558617115,
    -0.05214777588844299,
    -0.058634333312511444,
    0.0850212499499321,
    0.012365179136395454,
    0.020882632583379745,
    -0.02958616241812706,
    0.04657934978604317,
    0.13763011991977692,
    0.018167143687605858,
    -0.07257821410894394,
    0.06770717352628708,
    0.10149835795164108,
    0.055706970393657684,
    -0.16296665370464325,
    0.005163143388926983,
    0.09381837397813797,
    0.0762862116098404,
    -0.14350654184818268,
    0.10162975639104843,
    0.0741485208272934,
    0.046012528240680695,
    0.0539565347135067,
    -0.1585501730442047,
    0.05296697840094566,
    0.10266383737325668,
    -0.04229109361767769,
    0.04058521240949631,
    -0.023304149508476257,
    0.13786004483699799,
    0.06594032794237137,
    0.0007254527881741524,
    -0.07699709385633469,
    0.07440320402383804,
    -0.014688944444060326,
    -0.029015114530920982,
    -0.033448077738285065,
    -0.038713399320840836,
    0.07197932153940201,
    -0.07486708462238312,
    0.010852701961994171,
    -0.009067989885807037,
    -0.03522111847996712,
    0.07758330553770065,
    -0.05732649564743042,
    0.04139692336320877,
    0.007568709552288055,
    -0.00030308961868286133,
    0.03622590750455856,
    0.01314494013786316,
    0.06059107929468155,
    -0.016443073749542236,
    0.06959284096956253,
    0.05594771355390549,
    -0.01425635814666748,
    0.07885601371526718,
    -0.04493332654237747,
    0.06647410243749619,
    -0.011438518762588501,
    -0.031944531947374344,
    0.04377474635839462,
    -0.059877242892980576,
    -0.05289050191640854,
    0.04274492710828781,
    0.08388612419366837,
    0.04372211545705795,
    0.016742847859859467,
    0.0043584853410720825,
    -0.013900287449359894,
    -0.06879078596830368,
    -0.0710144191980362,
    -0.06232210248708725,
    -0.029980003833770752,
    -0.017391078174114227,
    0.007246531546115875,
    0.0783664658665657,
    -0.06765386462211609,
    -0.002072758972644806,
    0.011459916830062866,
    -0.07454632967710495,
    -0.08215083926916122,
    -0.06364591419696808,
    -0.05746906250715256,
    0.004401683807373047,
    0.06930986791849136,
    -0.014340206980705261,
    -0.05278068035840988,
    0.049592308700084686,
    0.04185939580202103,
    -0.01846790313720703,
    0.049979545176029205,
    0.008232243359088898,
    0.029059551656246185,
    0.07889420539140701,
    -0.04538740590214729,
    -0.05929484963417053,
    0.029926560819149017,
    0.03536204248666763,
    0.06309489160776138,
    0.03390474617481232,
    0.04250360280275345,
    0.0230247899889946,
    0.039122916758060455,
    0.06478067487478256,
    0.01064443588256836,
    0.022854164242744446,
    0.06650836020708084,
    0.012444809079170227,
    0.05851221829652786,
    -0.05585698038339615,
    0.018102064728736877,
    0.029006987810134888,
    0.07839558273553848,
    0.032577596604824066,
    0.03182625025510788,
    -0.009640470147132874,
    0.02751655876636505,
    0.05530574172735214,
    -0.05259840190410614,
    0.08242907375097275,
    -0.016481555998325348,
    0.07777456194162369,
    -0.014253392815589905,
    -0.06840383261442184,
    -0.020220987498760223,
    0.031169533729553223,
    -0.07155764847993851,
    0.04029557853937149,
    -0.07890830188989639,
    0.051641203463077545,
    0.0817757174372673,
    -0.03623659163713455,
    0.08219943195581436,
    -0.009755566716194153,
    -0.03701257333159447,
    -0.03728136792778969,
    0.08312026411294937,
    -0.011762022972106934,
    -0.06168726831674576,
    0.022634901106357574,
    -0.0543348453938961,
    -0.011589713394641876,
    0.08343557268381119,
    0.07181806117296219,
    0.05139166861772537,
    -0.014828279614448547,
    0.01773931086063385,
    -0.013781718909740448,
    -0.07359956204891205,
    0.04679527133703232,
    -0.03427481651306152,
    0.03187195211648941,
    -0.0285777747631073,
    0.01899610459804535,
    -0.059330809861421585,
    -0.025894485414028168,
    -0.06561756134033203,
    -0.02474113553762436,
    0.041432298719882965,
    0.0526842400431633,
    0.02006705105304718,
    0.030333831906318665,
    0.036390192806720734,
    -0.06752603501081467,
    0.05058521777391434,
    0.04730289429426193,
    -0.0810447558760643,
    -0.002642214298248291,
    0.07645926624536514,
    0.07707411795854568,
    0.013781443238258362,
    0.050455592572689056,
    0.019232407212257385,
    0.06071961671113968,
    -0.0571739599108696,
    0.039706893265247345,
    -0.0074407607316970825,
    -0.012440457940101624,
    -0.07810679078102112,
    0.015443861484527588,
    -0.07614783942699432,
    -0.04350977763533592,
    -0.06825079023838043,
    0.03795678913593292,
    -0.00798577070236206,
    0.044201381504535675,
    -0.0047865137457847595,
    0.07083240896463394,
    -0.053231850266456604,
    -0.048935677856206894,
    -0.00797715038061142,
    -0.051571596413850784,
    -0.07105639576911926,
    0.057827360928058624,
    -0.02008567750453949,
    0.06072545796632767,
    0.08050137013196945,
    -0.00576520711183548,
    0.0449112132191658,
    0.024401165544986725,
    0.02371019870042801,
    -0.019585013389587402,
    -0.07963193953037262,
    0.05052883177995682,
    0.05467277020215988,
    0.03159765899181366,
    0.04076071083545685,
    -0.07750224322080612,
    -0.013837918639183044,
    -0.0004969760775566101,
    -0.08091674745082855,
    0.04122983664274216,
    -0.07648403942584991,
    0.07710186392068863,
    -0.07660182565450668,
    -0.051977064460515976,
    0.06600191444158554,
    -0.06781526654958725,
    0.06531108170747757,
    0.07277240604162216,
    0.011620014905929565,
    0.07682118564844131,
    -0.03537004441022873,
    0.02463492751121521,
    0.03339677304029465,
    -0.07244386523962021,
    0.04687169939279556,
    0.04031062126159668,
    0.015911497175693512,
    0.024703875184059143,
    -0.0796203687787056,
    -0.006718792021274567,
    0.05803646892309189,
    -0.053436871618032455,
    -0.07275491952896118,
    -0.0229281447827816,
    0.07223957031965256,
    -0.007956370711326599,
    0.05605670064687729,
    0.027098476886749268,
    -0.014444053173065186,
    0.03243488818407059,
    -0.004492186009883881,
    0.0744272843003273,
    -0.044501565396785736,
    -0.025457974523305893,
    0.01757778972387314,
    0.07976879924535751,
    -0.016041211783885956,
    -0.04451737180352211,
    -0.02364913374185562,
    0.04769567400217056,
    0.007624626159667969,
    -0.0606154203414917,
    0.01700899749994278,
    0.008083358407020569,
    -0.00904933363199234,
    -0.056092627346515656,
    -0.0798458456993103,
    0.060132987797260284,
    0.019600175321102142,
    -0.053247153759002686,
    0.025933392345905304,
    0.07775314897298813,
    0.057433150708675385,
    0.039017848670482635,
    -0.03239239379763603,
    -0.0826929584145546,
    -0.06299489736557007,
    0.04176316410303116,
    0.012972570955753326,
    0.009546153247356415,
    0.04131432622671127,
    -0.00792665034532547,
    0.01795167475938797,
    -0.07252147793769836,
    0.07289449125528336,
    -0.04247019812464714,
    -0.05515073239803314,
    0.0477646067738533,
    -0.06732911616563797,
    0.055563561618328094,
    0.07400838285684586,
    -0.06303093582391739,
    -0.05251401290297508,
    0.010309174656867981,
    -0.06422595679759979,
    0.0431278720498085,
    0.017170414328575134,
    0.018065504729747772,
    0.03439111262559891,
    -0.06002506613731384,
    -0.03284388780593872,
    -0.011623747646808624,
    -0.07221285253763199,
    0.052185140550136566,
    0.03832399100065231,
    -0.06942758709192276,
    -0.06096232682466507,
    0.06647375971078873,
    -0.059079185128211975,
    0.06765612214803696,
    -0.030331142246723175,
    0.013678744435310364,
    0.07317053526639938,
    0.06274750083684921,
    0.027600102126598358,
    0.07901077717542648,
    0.027747444808483124,
    -0.03217987343668938,
    -0.05540192127227783,
    -0.06362581998109818,
    0.05321113020181656,
    0.01922699809074402,
    -0.008760325610637665,
    0.035283468663692474,
    -0.08099622279405594,
    0.05110932141542435,
    -0.05361275374889374,
    0.02474188059568405,
    0.03719336539506912,
    0.07709570974111557,
    0.015986524522304535,
    0.04857473820447922,
    -0.016672641038894653,
    -0.04556822031736374,
    0.06935127824544907,
    0.06261951476335526,
    -0.032648250460624695,
    0.052390508353710175,
    -0.006844751536846161,
    -0.008456356823444366,
    0.04758789390325546,
    0.05070275813341141,
    -0.04659372195601463,
    -0.03707750886678696,
    -0.020713090896606445,
    0.03193887323141098,
    -0.07013343274593353,
    0.031295374035835266,
    -0.0774187371134758,
    -0.005843982100486755,
    0.03508517146110535,
    0.07853204756975174,
    0.031230196356773376,
    0.02304033190011978,
    0.07816272228956223,
    0.03454701602458954,
    -0.0652051717042923,
    0.008038252592086792,
    -0.02832287922501564,
    -0.04629332199692726,
    -0.01874549686908722,
    -0.017830602824687958,
    -0.08295571804046631,
    0.07824709266424179,
    0.07136630266904831,
    0.01985970139503479,
    0.059120289981365204,
    -0.010510645806789398,
    -0.06077980995178223,
    -0.07981614023447037,
    -0.042697180062532425,
    -0.019027069211006165,
    -0.05072983726859093,
    -0.017382636666297913,
    0.049392081797122955,
    0.08290093392133713,
    0.020051971077919006,
    -0.03637136146426201,
    -0.0008179172873497009,
    0.06588972359895706,
    -0.06840014457702637,
    -0.05111876130104065,
    -0.08069195598363876,
    0.051761992275714874,
    -0.04750950261950493,
    -0.07818785309791565,
    0.05530800670385361,
    -0.03259272128343582,
    0.060651980340480804,
    0.06629302352666855,
    -0.025098633021116257,
    0.023496113717556,
    -0.012779362499713898,
    0.022351808845996857,
    0.0777636393904686,
    -0.06563514471054077,
    0.05606719106435776,
    0.013281174004077911,
    -0.03573295846581459,
    0.06990128010511398,
    0.01659107208251953,
    0.06545140594244003,
    0.029991716146469116,
    0.05232199281454086,
    -0.0674738734960556,
    0.04206926375627518,
    0.051397062838077545,
    0.008416250348091125,
    -0.052829694002866745,
    0.05059327930212021,
    -0.0821671262383461,
    -0.03486238047480583,
    -0.0401761531829834,
    -0.0022567063570022583,
    0.029711775481700897,
    -0.04651568830013275,
    -0.015736840665340424,
    -0.037345804274082184,
    -0.02685920149087906,
    -0.0480664037168026,
    -0.06364266574382782,
    0.014138676226139069,
    -0.08379054069519043,
    -0.02805256098508835,
    0.02472834289073944,
    0.06446265429258347,
    0.018356740474700928,
    -0.03531702235341072,
    -0.023493487387895584,
    0.0019461442716419697,
    -0.07800980657339096,
    -0.06897346675395966,
    0.08129364997148514,
    0.02368718571960926,
    0.11677911132574081,
    -0.08668291568756104,
    0.08859925717115402,
    -0.027676690369844437,
    0.03785957768559456,
    0.061464257538318634,
    -0.04584743082523346,
    0.08490648120641708,
    0.04167981073260307,
    0.016158493235707283,
    0.009110934101045132,
    0.045363374054431915,
    0.04014965891838074,
    0.026807863265275955,
    0.060340072959661484,
    0.08580046147108078,
    0.01085372269153595,
    0.0407971516251564,
    -0.02650991827249527,
    0.011730850674211979,
    0.057509634643793106,
    -0.049909383058547974,
    -0.0002474561333656311,
    -0.03141825646162033,
    0.038729649037122726,
    -0.006268203258514404,
    0.10513826459646225,
    -0.02139471471309662,
    -0.020567893981933594,
    -0.037753958255052567,
    0.006504866760224104,
    -0.049123771488666534,
    -0.036584172397851944,
    0.05228772014379501,
    -0.06220152974128723,
    0.06787518411874771,
    -0.007377886679023504,
    0.04335318133234978,
    0.09158023446798325,
    0.05604076758027077,
    -0.10668620467185974,
    0.09271940588951111,
    0.07724040001630783,
    0.06195402890443802,
    0.06329554319381714,
    -0.07585247606039047,
    -0.017821548506617546,
    0.05847252532839775,
    0.04797031730413437,
    0.040916211903095245,
    -0.07143133878707886,
    0.020006271079182625,
    0.025514326989650726,
    0.03331000730395317,
    -0.04759140685200691,
    0.03148961067199707,
    -0.008862350136041641,
    -0.025312598794698715,
    -0.08646474778652191,
    -0.004087368492037058,
    0.009475556202232838,
    0.07519202679395676,
    -0.018259048461914062,
    -0.02873712219297886,
    0.03372824192047119,
    -0.05023888126015663,
    -0.049438152462244034,
    0.05193715542554855,
    -0.11052165925502777,
    -0.03484566882252693,
    -0.05098423361778259,
    -0.039755579084157944,
    0.07581239938735962,
    0.04946816340088844,
    -0.015081992372870445,
    -0.044476088136434555,
    0.11174236238002777,
    0.06789796054363251,
    -0.04112602025270462,
    0.07016686350107193,
    -0.024763919413089752,
    0.051087573170661926,
    0.12459706515073776,
    0.07471144944429398,
    0.02205108478665352,
    -0.05706068128347397,
    0.06963307410478592,
    -0.07663126289844513,
    0.07558164745569229,
    -0.015430502593517303,
    0.017679965123534203,
    0.0724346712231636,
    -0.014379717409610748,
    0.12304878979921341,
    0.05530567094683647,
    -0.04717009514570236,
    -0.08219479769468307,
    0.022446081042289734,
    0.09222657978534698,
    0.08174554258584976,
    -0.07231035828590393,
    -0.12749801576137543,
    0.09625266492366791,
    0.08091464638710022,
    -0.04527508467435837,
    -0.04460920765995979,
    -0.06410324573516846,
    -0.05185391381382942,
    -0.03076491504907608,
    0.03281198441982269,
    -0.013874771073460579,
    -0.05996404588222504,
    -0.05641815438866615,
    0.09583143144845963,
    -0.09369675070047379,
    -0.058778755366802216,
    0.09354942291975021,
    0.002186492783948779,
    0.015183509327471256,
    0.013861755840480328,
    0.05001664534211159,
    0.0661742314696312,
    -0.03645060956478119,
    0.010474499315023422,
    -0.018983379006385803,
    0.1928878277540207,
    0.054571378976106644,
    0.06296937167644501,
    0.12260331213474274,
    -0.002179899951443076,
    -0.09127413481473923,
    0.027423150837421417,
    -0.13916337490081787,
    0.056380387395620346,
    0.020478732883930206,
    0.04170754924416542,
    0.1882544606924057,
    0.03160852566361427,
    0.05604609102010727,
    0.010871188715100288,
    0.16835324466228485,
    0.051492590457201004,
    -0.1396491378545761,
    0.1344628930091858,
    -0.030085328966379166,
    -0.06396214663982391,
    0.10699830949306488,
    -0.05449260026216507,
    0.023156149312853813,
    0.013074628077447414,
    0.017235206440091133,
    0.027306459844112396,
    0.0763484463095665,
    0.007445414550602436,
    -0.013333098962903023,
    0.02200489118695259,
    0.013243216089904308,
    0.19886216521263123,
    0.07441914826631546,
    -0.17390361428260803,
    0.009297902695834637,
    0.15595000982284546,
    0.08787906914949417,
    -0.14779050648212433,
    -0.12052831053733826,
    0.04998594895005226,
    0.13704775273799896,
    0.2479674518108368,
    -0.08490096777677536,
    0.07435426861047745,
    -0.06244127079844475,
    -0.1628352701663971,
    -0.04268942028284073,
