data_t L2_WEIGHTS [64][10] = {
    0.22950521111488342,
    -0.5065593719482422,
    0.22097182273864746,
    -0.3741331100463867,
    -1.074625015258789,
    -0.07288875430822372,
    -0.2935074269771576,
    -0.883870542049408,
    -0.12367457151412964,
    -0.7772998809814453,
    0.032620809972286224,
    0.15545131266117096,
    -0.08864142745733261,
    -0.017836254090070724,
    -0.37280288338661194,
    -0.4827631115913391,
    -0.91886305809021,
    0.11959407478570938,
    0.3487037420272827,
    -0.15538907051086426,
    -1.1413346529006958,
    -0.5662981867790222,
    -0.6947417855262756,
    0.45497551560401917,
    0.15864579379558563,
    0.15678666532039642,
    -0.11834262311458588,
    -0.05123824253678322,
    0.07952499389648438,
    -0.13070592284202576,
    0.1634598970413208,
    -0.06676357239484787,
    0.018757134675979614,
    0.302647203207016,
    -0.49910375475883484,
    0.18855780363082886,
    -0.013936682604253292,
    -0.41783246397972107,
    -0.11478713154792786,
    -1.105360507965088,
    0.45121508836746216,
    -1.3895039558410645,
    -0.6076339483261108,
    -0.28897327184677124,
    -0.21864788234233856,
    0.44158318638801575,
    -0.2899804711341858,
    0.5484990477561951,
    -1.211413025856018,
    -0.11035580188035965,
    -0.2605608105659485,
    0.14278727769851685,
    -0.48903974890708923,
    0.11796653270721436,
    -0.8836914300918579,
    0.5510358214378357,
    -0.5561482310295105,
    -0.33400747179985046,
    -0.880609393119812,
    -0.051438428461551666,
    -0.018550019711256027,
    0.7718620300292969,
    -0.009325351566076279,
    0.32916203141212463,
    -0.19413019716739655,
    -1.13969087600708,
    -0.007565783336758614,
    -0.48406147956848145,
    -0.5332982540130615,
    -0.2806488275527954,
    -0.40106770396232605,
    -0.7938805818557739,
    -0.5421550273895264,
    0.17893104255199432,
    0.188785582780838,
    -0.00887935422360897,
    -0.2079031765460968,
    0.039614468812942505,
    -0.17258751392364502,
    0.19397997856140137,
    -0.4608039855957031,
    0.23404362797737122,
    0.07798872143030167,
    -0.026152919977903366,
    -0.4866504669189453,
    -0.38547763228416443,
    -0.14413593709468842,
    -0.3607467710971832,
    0.11924627423286438,
    0.1827743798494339,
    -0.43748340010643005,
    -0.1399654597043991,
    -0.369669109582901,
    -1.1063135862350464,
    0.27755433320999146,
    -1.1423031091690063,
    -0.18378561735153198,
    -0.6711902618408203,
    0.08352185040712357,
    0.5765778422355652,
    -0.28984177112579346,
    -0.46236464381217957,
    -0.08141607791185379,
    -0.11694495379924774,
    0.48046475648880005,
    0.23669402301311493,
    -0.01969369314610958,
    -0.9097400903701782,
    -0.2602720856666565,
    -0.4684644341468811,
    0.07488440722227097,
    -0.6283125281333923,
    -0.11272591352462769,
    0.2337377965450287,
    0.1582738757133484,
    0.08002124726772308,
    0.2900720238685608,
    0.04437367245554924,
    0.11138498783111572,
    0.030023939907550812,
    -0.6605110764503479,
    0.30035749077796936,
    0.08087870478630066,
    -0.5808661580085754,
    0.31180131435394287,
    -1.3997013568878174,
    0.1602810025215149,
    0.23319421708583832,
    -0.006634608376771212,
    -0.39282122254371643,
    0.21512840688228607,
    -0.027047859504818916,
    -0.2081228345632553,
    -0.5646233558654785,
    -0.14696604013442993,
    -0.20182262361049652,
    0.022563306614756584,
    0.2505269944667816,
    -0.7562086582183838,
    0.3001011908054352,
    0.1054716482758522,
    0.13743151724338531,
    -0.8065347671508789,
    0.13023588061332703,
    -0.8450258374214172,
    -0.07235988229513168,
    0.011881142854690552,
    -0.1571684330701828,
    0.07606806606054306,
    0.1052454262971878,
    -0.20150335133075714,
    -1.0143873691558838,
    -0.6104143857955933,
    0.15039537847042084,
    -0.3161163628101349,
    0.31564855575561523,
    -0.11184260249137878,
    -1.1691194772720337,
    0.4597199559211731,
    0.2806076109409332,
    -0.6666078567504883,
    0.7903205156326294,
    -0.4053597152233124,
    -1.0267115831375122,
    0.13846184313297272,
    0.16082671284675598,
    0.07126080244779587,
    0.28450655937194824,
    0.06307928264141083,
    -0.29682931303977966,
    0.2722926735877991,
    -1.1174131631851196,
    0.426513671875,
    -0.5486745238304138,
    0.19459082186222076,
    0.2570779323577881,
    -0.29048216342926025,
    -0.55848628282547,
    -0.2813892066478729,
    -0.2567733824253082,
    -0.060977041721343994,
    -0.6064762473106384,
    0.02279152162373066,
    -0.13902312517166138,
    -0.11564546078443527,
    -0.13178400695323944,
    0.2819066047668457,
    -0.7792738676071167,
    0.12251347303390503,
    0.042307257652282715,
    0.14980614185333252,
    -0.1128331869840622,
    0.0750633180141449,
    -0.40769457817077637,
    -0.12701314687728882,
    0.02181209810078144,
    -0.9580806493759155,
    0.21648889780044556,
    0.30516061186790466,
    0.24874484539031982,
    -0.24043235182762146,
    -0.35921528935432434,
    0.18506567180156708,
    -0.7559482455253601,
    0.28544503450393677,
    -0.6049349904060364,
    -0.2812061011791229,
    -0.25580480694770813,
    -1.7774041891098022,
    0.3629395663738251,
    0.13058674335479736,
    0.014395895414054394,
    -0.6625969409942627,
    0.035151973366737366,
    -0.0496552437543869,
    -0.09231460839509964,
    0.35343873500823975,
    -0.5115242600440979,
    0.2626239061355591,
    0.21285364031791687,
    -0.6028620004653931,
    -0.6232985258102417,
    0.11240774393081665,
    0.25340962409973145,
    -0.9254843592643738,
    -0.3927921950817108,
    -0.8248013257980347,
    -0.645057201385498,
    0.45868203043937683,
    0.22928927838802338,
    -1.0877065658569336,
    0.20925834774971008,
    -0.9097263216972351,
    0.20079554617404938,
    0.18370786309242249,
    0.3733865022659302,
    -1.1403326988220215,
    0.07018759101629257,
    0.023405728861689568,
    0.13440044224262238,
    0.15081149339675903,
    -0.6588671207427979,
    0.15031008422374725,
    -0.09811855852603912,
    -0.10412430018186569,
    -0.23051373660564423,
    0.033601030707359314,
    0.1950106918811798,
    0.17785240709781647,
    0.30139467120170593,
    -0.5079094767570496,
    0.011589769273996353,
    0.14994488656520844,
    -0.30974432826042175,
    -1.0679668188095093,
    0.39285486936569214,
    -0.24506911635398865,
    0.06803058832883835,
    -0.12620829045772552,
    0.4387590289115906,
    -0.2513699531555176,
    0.17390550673007965,
    -0.7863745093345642,
    0.13235574960708618,
    0.21472187340259552,
    -0.14578187465667725,
    -0.6386691927909851,
    0.009736956097185612,
    -0.23230046033859253,
    0.31362950801849365,
    0.03255129233002663,
    -1.2615878582000732,
    -0.18136660754680634,
    -0.8889424800872803,
    0.4901404082775116,
    0.08071018755435944,
    0.32786500453948975,
    -0.4805038273334503,
    -0.009795445017516613,
    -0.23297107219696045,
    -0.04382168501615524,
    -0.8499192595481873,
    -0.329813688993454,
    0.521979808807373,
    -0.6132268905639648,
    -0.0749029889702797,
    -0.7210772037506104,
    -0.8987430930137634,
    0.25340622663497925,
    -0.362145334482193,
    -0.5974008440971375,
    0.4089210331439972,
    0.0545978844165802,
    -0.4019820988178253,
    -0.53255295753479,
    -0.18734805285930634,
    0.23708070814609528,
    -0.8520982265472412,
    0.0642218366265297,
    -0.18396104872226715,
    0.14431579411029816,
    -0.20734509825706482,
    0.1952303946018219,
    -0.2553832530975342,
    0.06220480799674988,
    -1.1132323741912842,
    -0.1162811815738678,
    0.04968556761741638,
    -0.07119136303663254,
    0.2843935191631317,
    -0.35506153106689453,
    -0.39876842498779297,
    0.6647921204566956,
    -0.06264419108629227,
    -1.3939305543899536,
    0.3236847221851349,
    -0.5223516225814819,
    0.15410961210727692,
    0.08276691287755966,
    -0.3442448377609253,
    0.09536273032426834,
    -0.7479437589645386,
    -0.005878792610019445,
    -0.12173817306756973,
    0.4174118936061859,
    -0.542743980884552,
    0.28835394978523254,
    0.3643955886363983,
    0.2281937152147293,
    -0.6629539728164673,
    -0.8638202548027039,
    0.386922150850296,
    0.011716228909790516,
    0.43894892930984497,
    -0.07476989179849625,
    -1.3726221323013306,
    -0.5727205276489258,
    0.35215818881988525,
    -1.1435922384262085,
    -1.5417920351028442,
    -0.02757062017917633,
    -1.165907859802246,
    0.14847734570503235,
    -0.4785427451133728,
    -0.09538466483354568,
    -0.3689931631088257,
    -0.20787563920021057,
    0.05536509305238724,
    0.5301644802093506,
    0.24486187100410461,
    0.2114374041557312,
    0.09298671036958694,
    -0.7568222880363464,
    0.09914085268974304,
    -0.9267750978469849,
    0.5684360265731812,
    0.5535624623298645,
    -0.42305800318717957,
    -0.08051825314760208,
    -0.029792573302984238,
    0.07249880582094193,
    0.477626234292984,
    0.15921814739704132,
    -0.75090092420578,
    -0.0038858253974467516,
    -0.5928307175636292,
    0.22491420805454254,
    0.28004881739616394,
    -0.00470375781878829,
    -1.006812572479248,
    -0.08950319141149521,
    -0.551464855670929,
    0.4662940502166748,
    -0.8041034936904907,
    -0.16217195987701416,
    0.46977874636650085,
    -0.7717252373695374,
    -0.4974885582923889,
    -0.37706854939460754,
    0.3067034184932709,
    0.11335716396570206,
    0.4451298415660858,
    0.342987596988678,
    0.07858895510435104,
    0.4826516807079315,
    -1.1697460412979126,
    -0.4713345170021057,
    -0.5248782634735107,
    -0.3961741626262665,
    -0.6416469216346741,
    -0.2699589431285858,
    0.06925786286592484,
    0.3128150403499603,
    -0.32773658633232117,
    -0.20722445845603943,
    0.015728669241070747,
    0.4283289611339569,
    0.30985409021377563,
    -0.7422815561294556,
    -1.0159028768539429,
    0.011591767892241478,
    -0.22698867321014404,
    0.5551897883415222,
    -0.2682569921016693,
    -1.103106141090393,
    0.34805092215538025,
    -0.5289523005485535,
    0.2289305329322815,
    0.2741256058216095,
    -0.6848318576812744,
    0.6317364573478699,
    -0.1721080243587494,
    0.34727194905281067,
    0.2072683870792389,
    -0.7721582651138306,
    -0.6148185729980469,
    -1.0785408020019531,
    0.08285299688577652,
    -0.16575400531291962,
    0.3591677248477936,
    0.008686395362019539,
    -0.5904532074928284,
    -0.2634858787059784,
    -0.04792463406920433,
    0.2210533171892166,
    -0.22260046005249023,
    -0.3597312569618225,
    0.02752673253417015,
    0.1430826336145401,
    -0.00563871581107378,
    -0.061671964824199677,
    -0.070846326649189,
    -0.9971815347671509,
    -0.5532990097999573,
    0.6437751054763794,
    0.33580538630485535,
    0.10099955648183823,
    0.5424462556838989,
    -0.027680469676852226,
    -0.847245454788208,
    0.09036167711019516,
    -0.6129693984985352,
    -0.07120832800865173,
    0.31573486328125,
    -0.18964098393917084,
    -0.44800713658332825,
    0.22315450012683868,
    -0.5831764936447144,
    -0.1349743753671646,
    0.4329553544521332,
    -0.07096734642982483,
    0.11213845014572144,
    0.36641934514045715,
    -0.16912274062633514,
    -0.3039824962615967,
    0.3641771078109741,
    0.2582802474498749,
    -0.6122731566429138,
    0.03579393029212952,
    -1.0255932807922363,
    -0.7800039649009705,
    -1.2295989990234375,
    -0.1859898716211319,
    -0.04752429574728012,
    -0.027125360444188118,
    0.3089979887008667,
    -1.388421893119812,
    0.3567107617855072,
    -0.7027774453163147,
    0.13755108416080475,
    -0.46608179807662964,
    0.03187229111790657,
    -0.7400652766227722,
    -0.11109285056591034,
    0.19273574650287628,
    -0.19852490723133087,
    0.3230688273906708,
    0.2712009847164154,
    -1.088043451309204,
    -0.08361651003360748,
    -1.3127528429031372,
    0.010682705789804459,
    0.30080097913742065,
    0.18861229717731476,
    -1.5846632719039917,
    -0.21572911739349365,
    -0.9829331040382385,
    0.12174860388040543,
    -0.26732689142227173,
    -1.1071110963821411,
    0.08688197284936905,
    0.05853335186839104,
    0.27582427859306335,
    0.21689479053020477,
    -1.2676266431808472,
    0.24518801271915436,
    -0.3780294358730316,
    -0.8898581266403198,
    0.04352818429470062,
    -0.47806549072265625,
    -0.656420111656189,
    0.07975968718528748,
    -0.7110887169837952,
    -1.324222445487976,
    0.11898384988307953,
    0.15658220648765564,
    -0.29907676577568054,
    0.07456441968679428,
    0.25239765644073486,
    0.14497293531894684,
    -0.25588259100914,
    0.10924039036035538,
    0.22333087027072906,
    0.36397963762283325,
    0.40707463026046753,
    -1.141605257987976,
    -1.0213905572891235,
    -0.07990479469299316,
    0.12906335294246674,
    -0.1079501360654831,
    0.04316381737589836,
    0.12358325719833374,
    -0.33784565329551697,
    -0.668712854385376,
    -0.2271450012922287,
    -0.1330287754535675,
    0.033244915306568146,
    -0.5243802666664124,
    0.18955370783805847,
    -0.23207402229309082,
    -0.6953710913658142,
    0.20931674540042877,
    0.19692085683345795,
    0.3505983352661133,
    -0.20213930308818817,
    -1.0416300296783447,
    0.4317774474620819,
    0.10928258299827576,
    -0.9498914480209351,
    0.13519315421581268,
    -1.4313311576843262,
    0.2947601079940796,
    -0.3692246377468109,
    0.4164689779281616,
    0.29480063915252686,
    0.29356926679611206,
    -2.0012097358703613,
    -0.8270507454872131,
    -0.8558900356292725,
    0.5921489000320435,
    0.25177255272865295,
    0.41350069642066956,
    -0.31868278980255127,
    0.25167468190193176,
    -0.4831635355949402,
    -0.07326509803533554,
    -0.25542715191841125,
    0.5740912556648254,
    -1.083142876625061,
    -0.6861925721168518,
    0.25497254729270935,
    -0.4466688930988312,
    0.03189310058951378,
    -1.160243034362793,
    0.9796319603919983,
    -1.2456218004226685,
    -0.5545142292976379,
    0.478912353515625,
    -0.9367927312850952,
    -0.3573298752307892,
    0.4124283790588379,
    0.1452203392982483,
    0.37177368998527527,
    -0.638469934463501,
    -0.6999078392982483,
    -0.34340402483940125,
    0.2678902745246887,
    0.21529428660869598,
    -0.01724321022629738,
    -1.2585557699203491,
    0.275536447763443,
    -0.4241683781147003,
    0.13524669408798218,
    -0.19287389516830444,
    -1.21283757686615,
    0.3173554241657257,
    -0.7076887488365173,
    0.18262608349323273,
    0.03418673947453499,
    0.1302008032798767,
    -0.6586189866065979,
    -0.7165364027023315,
    -0.10955492407083511,
    -0.38469839096069336,
    0.17753076553344727,
    0.34752294421195984,
    0.20351465046405792,
    -1.0737231969833374,
    0.22601503133773804,
    -0.10523717850446701,
    0.04219124838709831,
    0.00312066450715065,
    -1.1610904932022095,
    0.1541433185338974,
    -0.5337724089622498,
    0.320878267288208,
    0.23306284844875336,
    0.005202507600188255,
    -0.09098660945892334,
    -0.08133485168218613,
    0.5004592537879944,
    0.12059255689382553,
    -0.07340195029973984,
    0.35062089562416077,
    -1.7863234281539917,
    -0.013787364587187767,
    -0.12364200502634048,
    0.06382671743631363,
    -1.2694815397262573,
    -0.7095305919647217,
    -0.6532907485961914,
    0.10118991136550903,
    -0.01966140791773796,
    -0.07948073744773865,
    0.4080539047718048,
    -0.014160331338644028,
    -0.11244694143533707,
    -0.41449838876724243,
    0.21724751591682434,
    -0.2712838351726532,
    -0.8935654759407043,
    -1.1820529699325562,
    0.5080453753471375,
    0.31854018568992615,
    -1.5384306907653809,
    0.4225330352783203,
    -0.23589059710502625,
    0.4119582176208496,
    -0.3231980800628662,
    0.03183838352560997,
};